{"learner":{"attributes":{"best_iteration":"377","best_score":"0.19108034696233134"},"feature_names":[],"feature_types":[],"gradient_booster":{"model":{"gbtree_model_param":{"num_parallel_tree":"1","num_trees":"478"},"iteration_indptr":[0,1,2,3,4,5,6,7,8,9,10,11,12,13,14,15,16,17,18,19,20,21,22,23,24,25,26,27,28,29,30,31,32,33,34,35,36,37,38,39,40,41,42,43,44,45,46,47,48,49,50,51,52,53,54,55,56,57,58,59,60,61,62,63,64,65,66,67,68,69,70,71,72,73,74,75,76,77,78,79,80,81,82,83,84,85,86,87,88,89,90,91,92,93,94,95,96,97,98,99,100,101,102,103,104,105,106,107,108,109,110,111,112,113,114,115,116,117,118,119,120,121,122,123,124,125,126,127,128,129,130,131,132,133,134,135,136,137,138,139,140,141,142,143,144,145,146,147,148,149,150,151,152,153,154,155,156,157,158,159,160,161,162,163,164,165,166,167,168,169,170,171,172,173,174,175,176,177,178,179,180,181,182,183,184,185,186,187,188,189,190,191,192,193,194,195,196,197,198,199,200,201,202,203,204,205,206,207,208,209,210,211,212,213,214,215,216,217,218,219,220,221,222,223,224,225,226,227,228,229,230,231,232,233,234,235,236,237,238,239,240,241,242,243,244,245,246,247,248,249,250,251,252,253,254,255,256,257,258,259,260,261,262,263,264,265,266,267,268,269,270,271,272,273,274,275,276,277,278,279,280,281,282,283,284,285,286,287,288,289,290,291,292,293,294,295,296,297,298,299,300,301,302,303,304,305,306,307,308,309,310,311,312,313,314,315,316,317,318,319,320,321,322,323,324,325,326,327,328,329,330,331,332,333,334,335,336,337,338,339,340,341,342,343,344,345,346,347,348,349,350,351,352,353,354,355,356,357,358,359,360,361,362,363,364,365,366,367,368,369,370,371,372,373,374,375,376,377,378,379,380,381,382,383,384,385,386,387,388,389,390,391,392,393,394,395,396,397,398,399,400,401,402,403,404,405,406,407,408,409,410,411,412,413,414,415,416,417,418,419,420,421,422,423,424,425,426,427,428,429,430,431,432,433,434,435,436,437,438,439,440,441,442,443,444,445,446,447,448,449,450,451,452,453,454,455,456,457,458,459,460,461,462,463,464,465,466,467,468,469,470,471,472,473,474,475,476,477,478],"tree_info":[0,0,0,0,0,0,0,0,0,0,0,0,0,0,0,0,0,0,0,0,0,0,0,0,0,0,0,0,0,0,0,0,0,0,0,0,0,0,0,0,0,0,0,0,0,0,0,0,0,0,0,0,0,0,0,0,0,0,0,0,0,0,0,0,0,0,0,0,0,0,0,0,0,0,0,0,0,0,0,0,0,0,0,0,0,0,0,0,0,0,0,0,0,0,0,0,0,0,0,0,0,0,0,0,0,0,0,0,0,0,0,0,0,0,0,0,0,0,0,0,0,0,0,0,0,0,0,0,0,0,0,0,0,0,0,0,0,0,0,0,0,0,0,0,0,0,0,0,0,0,0,0,0,0,0,0,0,0,0,0,0,0,0,0,0,0,0,0,0,0,0,0,0,0,0,0,0,0,0,0,0,0,0,0,0,0,0,0,0,0,0,0,0,0,0,0,0,0,0,0,0,0,0,0,0,0,0,0,0,0,0,0,0,0,0,0,0,0,0,0,0,0,0,0,0,0,0,0,0,0,0,0,0,0,0,0,0,0,0,0,0,0,0,0,0,0,0,0,0,0,0,0,0,0,0,0,0,0,0,0,0,0,0,0,0,0,0,0,0,0,0,0,0,0,0,0,0,0,0,0,0,0,0,0,0,0,0,0,0,0,0,0,0,0,0,0,0,0,0,0,0,0,0,0,0,0,0,0,0,0,0,0,0,0,0,0,0,0,0,0,0,0,0,0,0,0,0,0,0,0,0,0,0,0,0,0,0,0,0,0,0,0,0,0,0,0,0,0,0,0,0,0,0,0,0,0,0,0,0,0,0,0,0,0,0,0,0,0,0,0,0,0,0,0,0,0,0,0,0,0,0,0,0,0,0,0,0,0,0,0,0,0,0,0,0,0,0,0,0,0,0,0,0,0,0,0,0,0,0,0,0,0,0,0,0,0,0,0,0,0,0,0,0,0,0,0,0,0,0,0,0,0,0,0,0,0,0,0,0,0,0,0,0,0,0,0,0,0,0,0,0,0,0,0,0,0,0,0,0,0,0,0,0,0,0,0,0,0,0,0,0,0,0,0,0,0,0,0],"trees":[{"base_weights":[-0E0,-1.6131322E0,1.9611651E-2,-1.7055493E-2,-1.2580645E0,-1.308642E0,6.666667E-3,-1.3445379E0,2.2222223E-3,-1.5144509E0,-8.405797E-1,-5.4545454E-3,-1.5421686E-2,-2.857143E-1,-1.2631578E0,-1.3333334E-2,2.2222222E-1,-0E0,-1.4117647E-2,1.1111111E-2,-1.8181819E-1,-6.666667E-3,2.857143E-1,-5E-3,8E-3],"categories":[],"categories_nodes":[],"categories_segments":[],"categories_sizes":[],"default_left":[0,0,0,0,0,0,0,0,0,0,0,0,0,0,0,0,0,0,0,0,0,0,0,0,0],"id":0,"left_children":[1,3,-1,-1,5,7,-1,9,-1,11,13,-1,-1,15,17,-1,19,-1,-1,-1,21,-1,23,-1,-1],"loss_changes":[1.6245181E3,7.0997314E0,0E0,0E0,6.9080048E0,3.6371002E0,0E0,3.8219147E0,0E0,3.204422E-1,3.683775E0,0E0,0E0,4.952381E0,1.7832823E0,0E0,2.6262627E0,0E0,0E0,0E0,1.4372294E0,0E0,1.8142856E0,0E0,0E0],"parents":[2147483647,0,0,1,1,4,4,5,5,7,7,9,9,10,10,13,13,14,14,16,16,20,20,22,22],"right_children":[2,4,-1,-1,6,8,-1,10,-1,12,14,-1,-1,16,18,-1,20,-1,-1,-1,22,-1,24,-1,-1],"split_conditions":[9.9081135E-1,9.609969E-3,1.9611651E-2,-1.7055493E-2,9.8973036E-1,3.0595914E-3,6.666667E-3,9.875981E-1,2.2222223E-3,9.752191E-1,5.2570354E-4,-5.4545454E-3,-1.5421686E-2,2.4696326E-4,9.8774755E-1,-1.3333334E-2,3.2330488E-4,-0E0,-1.4117647E-2,1.1111111E-2,4.2411624E-4,-6.666667E-3,7.5506285E-4,-5E-3,8E-3],"split_indices":[2,2,0,0,0,1,0,0,0,0,1,0,0,1,0,0,1,0,0,0,1,0,3,0,0],"split_type":[0,0,0,0,0,0,0,0,0,0,0,0,0,0,0,0,0,0,0,0,0,0,0,0,0],"sum_hessian":[5.115E2,2.8075E2,2.3075E2,2.1975E2,6.1E1,5.975E1,1.25E0,5.85E1,1.25E0,4.225E1,1.625E1,1.75E0,4.05E1,7.75E0,8.5E0,2E0,5.75E0,1E0,7.5E0,1.25E0,4.5E0,2E0,2.5E0,1E0,1.5E0],"tree_param":{"num_deleted":"0","num_feature":"4","num_nodes":"25","size_leaf_vector":"1"}},{"base_weights":[-5.7388996E-5,-1.5972829E0,1.9418243E-2,-1.6886937E-2,-1.2460603E0,-1.2962557E0,6.62967E-3,-1.3318464E0,2.209879E-3,-1.4998733E0,-8.3336055E-1,-5.41986E-3,-1.5272074E-2,-2.8353602E-1,-1.2520617E0,-1.3244839E-2,2.2110593E-1,-0E0,-1.3993695E-2,1.1049572E-2,-1.8066832E-1,-6.6264295E-3,2.8407425E-1,-2.2177934E-3,6.6367188E-3],"categories":[],"categories_nodes":[],"categories_segments":[],"categories_sizes":[],"default_left":[0,0,0,0,0,0,0,0,0,0,0,0,0,0,0,0,0,0,0,0,0,0,0,0,0],"id":1,"left_children":[1,3,-1,-1,5,7,-1,9,-1,11,13,-1,-1,15,17,-1,19,-1,-1,-1,21,-1,23,-1,-1],"loss_changes":[1.5925559E3,6.940918E0,0E0,0E0,6.800194E0,3.574646E0,0E0,3.7334747E0,0E0,3.0462646E-1,3.6160297E0,0E0,0E0,4.8891845E0,1.7520962E0,0E0,2.5965822E0,0E0,0E0,0E0,1.4201957E0,0E0,8.192551E-1,0E0,0E0],"parents":[2147483647,0,0,1,1,4,4,5,5,7,7,9,9,10,10,13,13,14,14,16,16,20,20,22,22],"right_children":[2,4,-1,-1,6,8,-1,10,-1,12,14,-1,-1,16,18,-1,20,-1,-1,-1,22,-1,24,-1,-1],"split_conditions":[9.9081135E-1,9.609969E-3,1.9418243E-2,-1.6886937E-2,9.8973036E-1,3.0595914E-3,6.62967E-3,9.875981E-1,2.209879E-3,9.752191E-1,5.2570354E-4,-5.41986E-3,-1.5272074E-2,2.4696326E-4,9.8774755E-1,-1.3244839E-2,3.2330488E-4,-0E0,-1.3993695E-2,1.1049572E-2,7.252419E-4,-6.6264295E-3,4.563492E-4,-2.2177934E-3,6.6367188E-3],"split_indices":[2,2,0,0,0,1,0,0,0,0,1,0,0,1,0,0,1,0,0,0,3,0,1,0,0],"split_type":[0,0,0,0,0,0,0,0,0,0,0,0,0,0,0,0,0,0,0,0,0,0,0,0,0],"sum_hessian":[5.1145883E2,2.8073102E2,2.3072781E2,2.1973401E2,6.0997013E1,5.974703E1,1.2499862E0,5.849703E1,1.2499985E0,4.224758E1,1.6249447E1,1.7499871E0,4.0497597E1,7.7498198E0,8.499626E0,1.999911E0,5.749909E0,1E0,7.499626E0,1.2499614E0,4.4999475E0,1.9999814E0,2.4999661E0,1.2499837E0,1.2499825E0],"tree_param":{"num_deleted":"0","num_feature":"4","num_nodes":"25","size_leaf_vector":"1"}},{"base_weights":[-1.1073231E-4,-1.581794E0,1.9230373E-2,-1.6722435E-2,-1.2342637E0,-1.2840863E0,6.592961E-3,-1.3193799E0,2.1976046E-3,-1.4856004E0,-8.2616997E-1,-5.3854464E-3,-1.5125643E-2,-2.8121933E-1,-1.2411597E0,-1.3157704E-2,2.2021191E-1,-0E0,-1.3872039E-2,1.09887505E-2,-1.7926633E-1,-6.589222E-3,2.830876E-1,-2.2015867E-3,6.605159E-3],"categories":[],"categories_nodes":[],"categories_segments":[],"categories_sizes":[],"default_left":[0,0,0,0,0,0,0,0,0,0,0,0,0,0,0,0,0,0,0,0,0,0,0,0,0],"id":2,"left_children":[1,3,-1,-1,5,7,-1,9,-1,11,13,-1,-1,15,17,-1,19,-1,-1,-1,21,-1,23,-1,-1],"loss_changes":[1.5614745E3,6.7901E0,0E0,0E0,6.69471E0,3.5137024E0,0E0,3.649582E0,0E0,2.8962708E-1,3.551547E0,0E0,0E0,4.8285236E0,1.7217426E0,0E0,2.5661798E0,0E0,0E0,0E0,1.4062381E0,0E0,8.101904E-1,0E0,0E0],"parents":[2147483647,0,0,1,1,4,4,5,5,7,7,9,9,10,10,13,13,14,14,16,16,20,20,22,22],"right_children":[2,4,-1,-1,6,8,-1,10,-1,12,14,-1,-1,16,18,-1,20,-1,-1,-1,22,-1,24,-1,-1],"split_conditions":[9.9081135E-1,9.609969E-3,1.9230373E-2,-1.6722435E-2,9.8973036E-1,3.0595914E-3,6.592961E-3,9.875981E-1,2.1976046E-3,9.752191E-1,5.2570354E-4,-5.3854464E-3,-1.5125643E-2,2.4696326E-4,9.8774755E-1,-1.3157704E-2,3.2330488E-4,-0E0,-1.3872039E-2,1.09887505E-2,4.2411624E-4,-6.589222E-3,7.6657097E-4,-2.2015867E-3,6.605159E-3],"split_indices":[2,2,0,0,0,1,0,0,0,0,1,0,0,1,0,0,1,0,0,0,1,0,3,0,0],"split_type":[0,0,0,0,0,0,0,0,0,0,0,0,0,0,0,0,0,0,0,0,0,0,0,0,0],"sum_hessian":[5.1133707E2,2.8067493E2,2.3066214E2,2.196867E2,6.098821E1,5.9738262E1,1.2499448E0,5.848827E1,1.2499939E0,4.224041E1,1.624786E1,1.7499481E0,4.0490463E1,7.74934E0,8.498519E0,1.9996468E0,5.7496934E0,1E0,7.498519E0,1.2498465E0,4.499847E0,1.99993E0,2.4999168E0,1.2499611E0,1.2499557E0],"tree_param":{"num_deleted":"0","num_feature":"4","num_nodes":"25","size_leaf_vector":"1"}},{"base_weights":[-1.626042E-4,-1.5666566E0,1.904781E-2,-1.6561823E-2,-1.2226908E0,-1.27215E0,6.556534E-3,-1.307155E0,2.1854038E-3,-1.4716212E0,-8.1908983E-1,-5.3513013E-3,-1.498228E-2,-2.789303E-1,-1.2304459E0,-1.3071901E-2,2.1932565E-1,-0E0,-1.3752605E-2,1.0928632E-2,-1.7787643E-1,-6.5496042E-3,2.8187367E-1,-2.1982342E-3,6.5829502E-3],"categories":[],"categories_nodes":[],"categories_segments":[],"categories_sizes":[],"default_left":[0,0,0,0,0,0,0,0,0,0,0,0,0,0,0,0,0,0,0,0,0,0,0,0,0],"id":3,"left_children":[1,3,-1,-1,5,7,-1,9,-1,11,13,-1,-1,15,17,-1,19,-1,-1,-1,21,-1,23,-1,-1],"loss_changes":[1.5312435E3,6.646118E0,0E0,0E0,6.591522E0,3.4543457E0,0E0,3.5685806E0,0E0,2.7539062E-1,3.4886475E0,0E0,0E0,4.768903E0,1.6921825E0,0E0,2.5362191E0,0E0,0E0,0E0,1.3909132E0,0E0,8.05652E-1,0E0,0E0],"parents":[2147483647,0,0,1,1,4,4,5,5,7,7,9,9,10,10,13,13,14,14,16,16,20,20,22,22],"right_children":[2,4,-1,-1,6,8,-1,10,-1,12,14,-1,-1,16,18,-1,20,-1,-1,-1,22,-1,24,-1,-1],"split_conditions":[9.9081135E-1,9.609969E-3,1.904781E-2,-1.6561823E-2,9.8973036E-1,3.0595914E-3,6.556534E-3,9.875981E-1,2.1854038E-3,9.752191E-1,5.2570354E-4,-5.3513013E-3,-1.498228E-2,2.4696326E-4,9.8774755E-1,-1.3071901E-2,3.2330488E-4,-0E0,-1.3752605E-2,1.0928632E-2,7.252419E-4,-6.5496042E-3,4.563492E-4,-2.1982342E-3,6.5829502E-3],"split_indices":[2,2,0,0,0,1,0,0,0,0,1,0,0,1,0,0,1,0,0,0,3,0,1,0,0],"split_type":[0,0,0,0,0,0,0,0,0,0,0,0,0,0,0,0,0,0,0,0,0,0,0,0,0],"sum_hessian":[5.111371E2,2.805828E2,2.305543E2,2.1960904E2,6.0973743E1,5.972387E1,1.2498764E0,5.847388E1,1.2499863E0,4.2228638E1,1.6245247E1,1.7498844E0,4.0478752E1,7.7485495E0,8.496696E0,1.9992106E0,5.749339E0,1E0,7.4966965E0,1.2496567E0,4.4996824E0,1.9998407E0,2.4998417E0,1.2499359E0,1.2499057E0],"tree_param":{"num_deleted":"0","num_feature":"4","num_nodes":"25","size_leaf_vector":"1"}},{"base_weights":[-2.1339432E-4,-1.5518581E0,1.8870333E-2,-1.640496E-2,-1.2113348E0,-1.2604395E0,6.5203873E-3,-1.2951639E0,2.1732731E-3,-1.4579263E0,-8.121172E-1,-5.3174207E-3,-1.4841882E-2,-2.7666816E-1,-1.2199148E0,-1.2987398E-2,2.1844667E-1,-0E0,-1.3635325E-2,1.0869203E-2,-1.764984E-1,-6.5129614E-3,2.8089577E-1,-2.1822166E-3,6.551741E-3],"categories":[],"categories_nodes":[],"categories_segments":[],"categories_sizes":[],"default_left":[0,0,0,0,0,0,0,0,0,0,0,0,0,0,0,0,0,0,0,0,0,0,0,0,0],"id":4,"left_children":[1,3,-1,-1,5,7,-1,9,-1,11,13,-1,-1,15,17,-1,19,-1,-1,-1,21,-1,23,-1,-1],"loss_changes":[1.5018304E3,6.5081177E0,0E0,0E0,6.4906464E0,3.396469E0,0E0,3.4903717E0,0E0,2.6187134E-1,3.4272842E0,0E0,0E0,4.7102957E0,1.663394E0,0E0,2.5066934E0,0E0,0E0,0E0,1.3772631E0,0E0,7.9675543E-1,0E0,0E0],"parents":[2147483647,0,0,1,1,4,4,5,5,7,7,9,9,10,10,13,13,14,14,16,16,20,20,22,22],"right_children":[2,4,-1,-1,6,8,-1,10,-1,12,14,-1,-1,16,18,-1,20,-1,-1,-1,22,-1,24,-1,-1],"split_conditions":[9.9081135E-1,9.609969E-3,1.8870333E-2,-1.640496E-2,9.8973036E-1,3.0595914E-3,6.5203873E-3,9.875981E-1,2.1732731E-3,9.752191E-1,5.2570354E-4,-5.3174207E-3,-1.4841882E-2,2.4696326E-4,9.8774755E-1,-1.2987398E-2,3.2330488E-4,-0E0,-1.3635325E-2,1.0869203E-2,4.2411624E-4,-6.5129614E-3,7.6657097E-4,-2.1822166E-3,6.551741E-3],"split_indices":[2,2,0,0,0,1,0,0,0,0,1,0,0,1,0,0,1,0,0,0,1,0,3,0,0],"split_type":[0,0,0,0,0,0,0,0,0,0,0,0,0,0,0,0,0,0,0,0,0,0,0,0,0],"sum_hessian":[5.1086127E2,2.804557E2,2.3040558E2,2.1950189E2,6.0953785E1,5.9704002E1,1.2497815E0,5.845403E1,1.2499757E0,4.2212387E1,1.624164E1,1.7497957E0,4.0462593E1,7.747462E0,8.494178E0,1.9986063E0,5.7488556E0,1E0,7.4941783E0,1.2493931E0,4.499462E0,1.9997232E0,2.4997392E0,1.2498972E0,1.2498419E0],"tree_param":{"num_deleted":"0","num_feature":"4","num_nodes":"25","size_leaf_vector":"1"}},{"base_weights":[-2.6313745E-4,-1.5373861E0,1.869774E-2,-1.6251706E-2,-1.2001884E0,-1.2489471E0,6.4845155E-3,-1.2833985E0,2.1612127E-3,-1.4445051E0,-8.052494E-1,-5.2838014E-3,-1.470434E-2,-2.7443254E-1,-1.2095609E0,-1.290416E-2,2.1757527E-1,-0E0,-1.3520132E-2,1.0810457E-2,-1.7513224E-1,-6.47395E-3,2.7969357E-1,-2.1789507E-3,6.529818E-3],"categories":[],"categories_nodes":[],"categories_segments":[],"categories_sizes":[],"default_left":[0,0,0,0,0,0,0,0,0,0,0,0,0,0,0,0,0,0,0,0,0,0,0,0,0],"id":5,"left_children":[1,3,-1,-1,5,7,-1,9,-1,11,13,-1,-1,15,17,-1,19,-1,-1,-1,21,-1,23,-1,-1],"loss_changes":[1.4732037E3,6.3760376E0,0E0,0E0,6.3919525E0,3.340042E0,0E0,3.414795E0,0E0,2.490387E-1,3.3673944E0,0E0,0E0,4.6526785E0,1.6353416E0,0E0,2.4775946E0,0E0,0E0,0E0,1.3622812E0,0E0,7.9231393E-1,0E0,0E0],"parents":[2147483647,0,0,1,1,4,4,5,5,7,7,9,9,10,10,13,13,14,14,16,16,20,20,22,22],"right_children":[2,4,-1,-1,6,8,-1,10,-1,12,14,-1,-1,16,18,-1,20,-1,-1,-1,22,-1,24,-1,-1],"split_conditions":[9.9081135E-1,9.609969E-3,1.869774E-2,-1.6251706E-2,9.8973036E-1,3.0595914E-3,6.4845155E-3,9.875981E-1,2.1612127E-3,9.752191E-1,5.2570354E-4,-5.2838014E-3,-1.470434E-2,2.4696326E-4,9.8774755E-1,-1.290416E-2,3.2330488E-4,-0E0,-1.3520132E-2,1.0810457E-2,7.252419E-4,-6.47395E-3,4.563492E-4,-2.1789507E-3,6.529818E-3],"split_indices":[2,2,0,0,0,1,0,0,0,0,1,0,0,1,0,0,1,0,0,0,3,0,1,0,0],"split_type":[0,0,0,0,0,0,0,0,0,0,0,0,0,0,0,0,0,0,0,0,0,0,0,0,0],"sum_hessian":[5.1051187E2,2.8029468E2,2.302172E2,2.193662E2,6.0928482E1,5.967882E1,1.2496605E0,5.842886E1,1.2499623E0,4.21918E1,1.6237059E1,1.7496829E0,4.0442116E1,7.7460747E0,8.490985E0,1.9978372E0,5.7482376E0,1E0,7.4909844E0,1.2490569E0,4.4991803E0,1.9995654E0,2.4996152E0,1.2498553E0,1.2497598E0],"tree_param":{"num_deleted":"0","num_feature":"4","num_nodes":"25","size_leaf_vector":"1"}},{"base_weights":[-3.116671E-4,-1.5232284E0,1.8529838E-2,-1.6101923E-2,-1.1892447E0,-1.2376659E0,6.448918E-3,-1.2718517E0,2.1492222E-3,-1.4313486E0,-7.984836E-1,-5.2504423E-3,-1.4569555E-2,-2.722229E-1,-1.1993793E0,-1.2822162E-2,2.1671097E-1,-0E0,-1.3406968E-2,1.0752375E-2,-1.7377767E-1,-6.4378595E-3,2.7872434E-1,-2.1631184E-3,6.4989543E-3],"categories":[],"categories_nodes":[],"categories_segments":[],"categories_sizes":[],"default_left":[0,0,0,0,0,0,0,0,0,0,0,0,0,0,0,0,0,0,0,0,0,0,0,0,0],"id":6,"left_children":[1,3,-1,-1,5,7,-1,9,-1,11,13,-1,-1,15,17,-1,19,-1,-1,-1,21,-1,23,-1,-1],"loss_changes":[1.445334E3,6.2495728E0,0E0,0E0,6.295395E0,3.2850113E0,0E0,3.341713E0,0E0,2.3684692E-1,3.3089352E0,0E0,0E0,4.5960307E0,1.6080036E0,0E0,2.448915E0,0E0,0E0,0E0,1.3489317E0,0E0,7.83582E-1,0E0,0E0],"parents":[2147483647,0,0,1,1,4,4,5,5,7,7,9,9,10,10,13,13,14,14,16,16,20,20,22,22],"right_children":[2,4,-1,-1,6,8,-1,10,-1,12,14,-1,-1,16,18,-1,20,-1,-1,-1,22,-1,24,-1,-1],"split_conditions":[9.9081135E-1,9.609969E-3,1.8529838E-2,-1.6101923E-2,9.8973036E-1,3.0595914E-3,6.448918E-3,9.875981E-1,2.1492222E-3,9.752191E-1,5.2570354E-4,-5.2504423E-3,-1.4569555E-2,2.4696326E-4,9.8774755E-1,-1.2822162E-2,3.2330488E-4,-0E0,-1.3406968E-2,1.0752375E-2,4.2411624E-4,-6.4378595E-3,7.6657097E-4,-2.1631184E-3,6.4989543E-3],"split_indices":[2,2,0,0,0,1,0,0,0,0,1,0,0,1,0,0,1,0,0,0,1,0,3,0,0],"split_type":[0,0,0,0,0,0,0,0,0,0,0,0,0,0,0,0,0,0,0,0,0,0,0,0,0],"sum_hessian":[5.1009122E2,2.8010083E2,2.2999039E2,2.1920282E2,6.0898003E1,5.9648487E1,1.2495137E0,5.839854E1,1.249946E0,4.216701E1,1.6231533E1,1.749546E0,4.0417465E1,7.744401E0,8.487132E0,1.9969064E0,5.7474947E0,1E0,7.4871316E0,1.2486497E0,4.498845E0,1.9993842E0,2.499461E0,1.249801E0,1.2496598E0],"tree_param":{"num_deleted":"0","num_feature":"4","num_nodes":"25","size_leaf_vector":"1"}},{"base_weights":[-3.593123E-4,-1.5093741E0,1.8366437E-2,-1.5955485E-2,-1.1784976E0,-1.2265891E0,6.4135883E-3,-1.2605162E0,2.1372994E-3,-1.4184474E0,-7.9181737E-1,-5.217338E-3,-1.4437432E-2,-2.700388E-1,-1.189365E0,-1.2741377E-2,2.1585414E-1,-0E0,-1.3295767E-2,1.0694949E-2,-1.7243454E-1,-6.3994355E-3,2.775337E-1,-2.1599394E-3,6.477312E-3],"categories":[],"categories_nodes":[],"categories_segments":[],"categories_sizes":[],"default_left":[0,0,0,0,0,0,0,0,0,0,0,0,0,0,0,0,0,0,0,0,0,0,0,0,0],"id":7,"left_children":[1,3,-1,-1,5,7,-1,9,-1,11,13,-1,-1,15,17,-1,19,-1,-1,-1,21,-1,23,-1,-1],"loss_changes":[1.4181925E3,6.128296E0,0E0,0E0,6.200882E0,3.2313232E0,0E0,3.2710419E0,0E0,2.2525787E-1,3.2518559E0,0E0,0E0,4.5403295E0,1.5813522E0,0E0,2.420647E0,0E0,0E0,0E0,1.3342829E0,0E0,7.792358E-1,0E0,0E0],"parents":[2147483647,0,0,1,1,4,4,5,5,7,7,9,9,10,10,13,13,14,14,16,16,20,20,22,22],"right_children":[2,4,-1,-1,6,8,-1,10,-1,12,14,-1,-1,16,18,-1,20,-1,-1,-1,22,-1,24,-1,-1],"split_conditions":[9.9081135E-1,9.609969E-3,1.8366437E-2,-1.5955485E-2,9.8973036E-1,3.0595914E-3,6.4135883E-3,9.875981E-1,2.1372994E-3,9.752191E-1,5.2570354E-4,-5.217338E-3,-1.4437432E-2,2.4696326E-4,9.8774755E-1,-1.2741377E-2,3.2330488E-4,-0E0,-1.3295767E-2,1.0694949E-2,7.252419E-4,-6.3994355E-3,4.563492E-4,-2.1599394E-3,6.477312E-3],"split_indices":[2,2,0,0,0,1,0,0,0,0,1,0,0,1,0,0,1,0,0,0,3,0,1,0,0],"split_type":[0,0,0,0,0,0,0,0,0,0,0,0,0,0,0,0,0,0,0,0,0,0,0,0,0],"sum_hessian":[5.0960144E2,2.798751E2,2.2972636E2,2.190126E2,6.0862488E1,5.9613144E1,1.2493418E0,5.8363216E1,1.2499268E0,4.2138138E1,1.622508E1,1.7493862E0,4.0388752E1,7.74244E0,8.482639E0,1.9958179E0,5.7466226E0,1E0,7.4826393E0,1.2481724E0,4.49845E0,1.9991606E0,2.4992893E0,1.2497429E0,1.2495465E0],"tree_param":{"num_deleted":"0","num_feature":"4","num_nodes":"25","size_leaf_vector":"1"}},{"base_weights":[-4.057908E-4,-1.4958122E0,1.8207368E-2,-1.581227E-2,-1.1679407E0,-1.2157104E0,6.3785277E-3,-1.2493858E0,2.1254465E-3,-1.4057938E0,-7.8524816E-1,-5.1844884E-3,-1.4307887E-2,-2.6787987E-1,-1.1795132E0,-1.26617765E-2,2.1500416E-1,-0E0,-1.3186473E-2,1.0638166E-2,-1.7110291E-1,-6.3638827E-3,2.7657285E-1,-2.1442913E-3,6.446787E-3],"categories":[],"categories_nodes":[],"categories_segments":[],"categories_sizes":[],"default_left":[0,0,0,0,0,0,0,0,0,0,0,0,0,0,0,0,0,0,0,0,0,0,0,0,0],"id":8,"left_children":[1,3,-1,-1,5,7,-1,9,-1,11,13,-1,-1,15,17,-1,19,-1,-1,-1,21,-1,23,-1,-1],"loss_changes":[1.3917528E3,6.011963E0,0E0,0E0,6.1083527E0,3.1789246E0,0E0,3.2026596E0,0E0,2.1424866E-1,3.196107E0,0E0,0E0,4.4855537E0,1.5553617E0,0E0,2.3927844E0,0E0,0E0,0E0,1.3212252E0,0E0,7.70665E-1,0E0,0E0],"parents":[2147483647,0,0,1,1,4,4,5,5,7,7,9,9,10,10,13,13,14,14,16,16,20,20,22,22],"right_children":[2,4,-1,-1,6,8,-1,10,-1,12,14,-1,-1,16,18,-1,20,-1,-1,-1,22,-1,24,-1,-1],"split_conditions":[9.9081135E-1,9.609969E-3,1.8207368E-2,-1.581227E-2,9.8973036E-1,3.0595914E-3,6.3785277E-3,9.875981E-1,2.1254465E-3,9.752191E-1,5.2570354E-4,-5.1844884E-3,-1.4307887E-2,2.4696326E-4,9.8774755E-1,-1.26617765E-2,3.2330488E-4,-0E0,-1.3186473E-2,1.0638166E-2,4.2411624E-4,-6.3638827E-3,7.6657097E-4,-2.1442913E-3,6.446787E-3],"split_indices":[2,2,0,0,0,1,0,0,0,0,1,0,0,1,0,0,1,0,0,0,1,0,3,0,0],"split_type":[0,0,0,0,0,0,0,0,0,0,0,0,0,0,0,0,0,0,0,0,0,0,0,0,0],"sum_hessian":[5.090447E2,2.7961847E2,2.2942625E2,2.1879637E2,6.082209E1,5.9572945E1,1.2491452E0,5.832304E1,1.249905E0,4.210531E1,1.6217728E1,1.7492033E0,4.0356106E1,7.7402034E0,8.477525E0,1.9945743E0,5.7456293E0,1E0,7.4775243E0,1.2476265E0,4.4980025E0,1.9989178E0,2.499085E0,1.2496737E0,1.2494112E0],"tree_param":{"num_deleted":"0","num_feature":"4","num_nodes":"25","size_leaf_vector":"1"}},{"base_weights":[-4.5150862E-4,-1.4825326E0,1.8052462E-2,-1.5672164E-2,-1.1575687E0,-1.2050239E0,6.343729E-3,-1.2384542E0,2.113662E-3,-1.3933793E0,-7.7877367E-1,-5.151888E-3,-1.4180834E-2,-2.6574546E-1,-1.1698194E0,-1.2583328E-2,2.1416155E-1,-0E0,-1.3079031E-2,1.0582019E-2,-1.6978244E-1,-6.3260356E-3,2.753937E-1,-2.1411963E-3,6.425422E-3],"categories":[],"categories_nodes":[],"categories_segments":[],"categories_sizes":[],"default_left":[0,0,0,0,0,0,0,0,0,0,0,0,0,0,0,0,0,0,0,0,0,0,0,0,0],"id":9,"left_children":[1,3,-1,-1,5,7,-1,9,-1,11,13,-1,-1,15,17,-1,19,-1,-1,-1,21,-1,23,-1,-1],"loss_changes":[1.3659899E3,5.9003296E0,0E0,0E0,6.0177536E0,3.1277924E0,0E0,3.1364212E0,0E0,2.0379639E-1,3.141652E0,0E0,0E0,4.4316826E0,1.5300112E0,0E0,2.3653188E0,0E0,0E0,0E0,1.3069025E0,0E0,7.6641166E-1,0E0,0E0],"parents":[2147483647,0,0,1,1,4,4,5,5,7,7,9,9,10,10,13,13,14,14,16,16,20,20,22,22],"right_children":[2,4,-1,-1,6,8,-1,10,-1,12,14,-1,-1,16,18,-1,20,-1,-1,-1,22,-1,24,-1,-1],"split_conditions":[9.9081135E-1,9.609969E-3,1.8052462E-2,-1.5672164E-2,9.8973036E-1,3.0595914E-3,6.343729E-3,9.875981E-1,2.113662E-3,9.752191E-1,5.2570354E-4,-5.151888E-3,-1.4180834E-2,2.4696326E-4,9.8774755E-1,-1.2583328E-2,3.2330488E-4,-0E0,-1.3079031E-2,1.0582019E-2,7.252419E-4,-6.3260356E-3,4.563492E-4,-2.1411963E-3,6.425422E-3],"split_indices":[2,2,0,0,0,1,0,0,0,0,1,0,0,1,0,0,1,0,0,0,3,0,1,0,0],"split_type":[0,0,0,0,0,0,0,0,0,0,0,0,0,0,0,0,0,0,0,0,0,0,0,0,0],"sum_hessian":[5.084232E2,2.7933197E2,2.2909122E2,2.1855504E2,6.0776943E1,5.952802E1,1.2489241E0,5.827814E1,1.2498804E0,4.2068645E1,1.6209496E1,1.7489979E0,4.0319645E1,7.737691E0,8.471805E0,1.9931798E0,5.7445107E0,1E0,7.471805E0,1.2470131E0,4.4974976E0,1.9986308E0,2.498867E0,1.2495996E0,1.2492675E0],"tree_param":{"num_deleted":"0","num_feature":"4","num_nodes":"25","size_leaf_vector":"1"}},{"base_weights":[-4.9597997E-4,-1.4695253E0,1.7901564E-2,-1.5535053E-2,-1.1473751E0,-1.1945231E0,6.3091884E-3,-1.2277145E0,2.101946E-3,-1.3811958E0,-7.723913E-1,-5.119534E-3,-1.4056184E-2,-2.6363528E-1,-1.1602788E0,-1.2506013E-2,2.1332571E-1,-0E0,-1.2973385E-2,1.0526492E-2,-1.6847312E-1,-6.2910076E-3,2.7444124E-1,-2.1257275E-3,6.3952296E-3],"categories":[],"categories_nodes":[],"categories_segments":[],"categories_sizes":[],"default_left":[0,0,0,0,0,0,0,0,0,0,0,0,0,0,0,0,0,0,0,0,0,0,0,0,0],"id":10,"left_children":[1,3,-1,-1,5,7,-1,9,-1,11,13,-1,-1,15,17,-1,19,-1,-1,-1,21,-1,23,-1,-1],"loss_changes":[1.3408788E3,5.793152E0,0E0,0E0,5.9290314E0,3.0778427E0,0E0,3.0722885E0,0E0,1.9384003E-1,3.08844E0,0E0,0E0,4.3786955E0,1.5052748E0,0E0,2.3382444E0,0E0,0E0,0E0,1.2941297E0,0E0,7.5799847E-1,0E0,0E0],"parents":[2147483647,0,0,1,1,4,4,5,5,7,7,9,9,10,10,13,13,14,14,16,16,20,20,22,22],"right_children":[2,4,-1,-1,6,8,-1,10,-1,12,14,-1,-1,16,18,-1,20,-1,-1,-1,22,-1,24,-1,-1],"split_conditions":[9.9081135E-1,9.609969E-3,1.7901564E-2,-1.5535053E-2,9.8973036E-1,3.0595914E-3,6.3091884E-3,9.875981E-1,2.101946E-3,9.752191E-1,5.2570354E-4,-5.119534E-3,-1.4056184E-2,2.4696326E-4,9.8774755E-1,-1.2506013E-2,3.2330488E-4,-0E0,-1.2973385E-2,1.0526492E-2,4.2411624E-4,-6.2910076E-3,7.6657097E-4,-2.1257275E-3,6.3952296E-3],"split_indices":[2,2,0,0,0,1,0,0,0,0,1,0,0,1,0,0,1,0,0,0,1,0,3,0,0],"split_type":[0,0,0,0,0,0,0,0,0,0,0,0,0,0,0,0,0,0,0,0,0,0,0,0,0],"sum_hessian":[5.077388E2,2.7901645E2,2.2872235E2,2.1828925E2,6.0727207E1,5.947853E1,1.2486792E0,5.8228676E1,1.2498533E0,4.2028267E1,1.620041E1,1.7487708E0,4.0279495E1,7.734913E0,8.465498E0,1.9916372E0,5.7432756E0,1E0,7.465498E0,1.2463334E0,4.4969425E0,1.9983287E0,2.4986138E0,1.249516E0,1.2490977E0],"tree_param":{"num_deleted":"0","num_feature":"4","num_nodes":"25","size_leaf_vector":"1"}},{"base_weights":[-5.399203E-4,-1.4567814E0,1.7754521E-2,-1.5400836E-2,-1.1373551E0,-1.1842027E0,6.274908E-3,-1.2171614E0,2.0902972E-3,-1.369236E0,-7.6609915E-1,-5.0874264E-3,-1.3933861E-2,-2.6154894E-1,-1.1508875E0,-1.2429802E-2,2.1249694E-1,-0E0,-1.2869484E-2,1.0471578E-2,-1.6717483E-1,-6.2537226E-3,2.7327323E-1,-2.1227158E-3,6.374136E-3],"categories":[],"categories_nodes":[],"categories_segments":[],"categories_sizes":[],"default_left":[0,0,0,0,0,0,0,0,0,0,0,0,0,0,0,0,0,0,0,0,0,0,0,0,0],"id":11,"left_children":[1,3,-1,-1,5,7,-1,9,-1,11,13,-1,-1,15,17,-1,19,-1,-1,-1,21,-1,23,-1,-1],"loss_changes":[1.3163966E3,5.6901855E0,0E0,0E0,5.8421326E0,3.029068E0,0E0,3.0101242E0,0E0,1.843872E-1,3.0364351E0,0E0,0E0,4.3265753E0,1.4811325E0,0E0,2.3115532E0,0E0,0E0,0E0,1.2801241E0,0E0,7.538359E-1,0E0,0E0],"parents":[2147483647,0,0,1,1,4,4,5,5,7,7,9,9,10,10,13,13,14,14,16,16,20,20,22,22],"right_children":[2,4,-1,-1,6,8,-1,10,-1,12,14,-1,-1,16,18,-1,20,-1,-1,-1,22,-1,24,-1,-1],"split_conditions":[9.9081135E-1,9.609969E-3,1.7754521E-2,-1.5400836E-2,9.8973036E-1,3.0595914E-3,6.274908E-3,9.875981E-1,2.0902972E-3,9.752191E-1,5.2570354E-4,-5.0874264E-3,-1.3933861E-2,2.4696326E-4,9.8774755E-1,-1.2429802E-2,3.2330488E-4,-0E0,-1.2869484E-2,1.0471578E-2,7.252419E-4,-6.2537226E-3,4.563492E-4,-2.1227158E-3,6.374136E-3],"split_indices":[2,2,0,0,0,1,0,0,0,0,1,0,0,1,0,0,1,0,0,0,3,0,1,0,0],"split_type":[0,0,0,0,0,0,0,0,0,0,0,0,0,0,0,0,0,0,0,0,0,0,0,0,0],"sum_hessian":[5.069936E2,2.7867288E2,2.2832072E2,2.1799986E2,6.067301E1,5.94246E1,1.2484107E0,5.8174778E1,1.2498233E0,4.1984287E1,1.6190489E1,1.7485222E0,4.0235764E1,7.731869E0,8.45862E0,1.9899497E0,5.7419195E0,1E0,7.4586196E0,1.2455887E0,4.4963307E0,1.9979801E0,2.4983509E0,1.2494265E0,1.2489243E0],"tree_param":{"num_deleted":"0","num_feature":"4","num_nodes":"25","size_leaf_vector":"1"}},{"base_weights":[-5.827193E-4,-1.4442912E0,1.7611193E-2,-1.5269407E-2,-1.1275033E0,-1.1740571E0,6.2408797E-3,-1.2067889E0,2.0787152E-3,-1.3574928E0,-7.5989485E-1,-5.0555607E-3,-1.3813791E-2,-2.5948593E-1,-1.1416416E0,-1.235467E-2,2.1167478E-1,-0E0,-1.2767282E-2,1.0417262E-2,-1.6588748E-1,-6.21921E-3,2.7232903E-1,-2.1074244E-3,6.3442714E-3],"categories":[],"categories_nodes":[],"categories_segments":[],"categories_sizes":[],"default_left":[0,0,0,0,0,0,0,0,0,0,0,0,0,0,0,0,0,0,0,0,0,0,0,0,0],"id":12,"left_children":[1,3,-1,-1,5,7,-1,9,-1,11,13,-1,-1,15,17,-1,19,-1,-1,-1,21,-1,23,-1,-1],"loss_changes":[1.2925216E3,5.5911865E0,0E0,0E0,5.756958E0,2.9813995E0,0E0,2.9498749E0,0E0,1.7538452E-1,2.9856024E0,0E0,0E0,4.275298E0,1.4575663E0,0E0,2.2852404E0,0E0,0E0,0E0,1.2676299E0,0E0,7.45577E-1,0E0,0E0],"parents":[2147483647,0,0,1,1,4,4,5,5,7,7,9,9,10,10,13,13,14,14,16,16,20,20,22,22],"right_children":[2,4,-1,-1,6,8,-1,10,-1,12,14,-1,-1,16,18,-1,20,-1,-1,-1,22,-1,24,-1,-1],"split_conditions":[9.9081135E-1,9.609969E-3,1.7611193E-2,-1.5269407E-2,9.8973036E-1,3.0595914E-3,6.2408797E-3,9.875981E-1,2.0787152E-3,9.752191E-1,5.2570354E-4,-5.0555607E-3,-1.3813791E-2,2.4696326E-4,9.8774755E-1,-1.235467E-2,3.2330488E-4,-0E0,-1.2767282E-2,1.0417262E-2,4.2411624E-4,-6.21921E-3,7.6657097E-4,-2.1074244E-3,6.3442714E-3],"split_indices":[2,2,0,0,0,1,0,0,0,0,1,0,0,1,0,0,1,0,0,0,1,0,3,0,0],"split_type":[0,0,0,0,0,0,0,0,0,0,0,0,0,0,0,0,0,0,0,0,0,0,0,0,0],"sum_hessian":[5.0618958E2,2.7830215E2,2.2788742E2,2.1768767E2,6.061449E1,5.936637E1,1.2481191E0,5.811658E1,1.2497909E0,4.193682E1,1.6179758E1,1.7482523E0,4.018857E1,7.728572E0,8.451186E0,1.9881209E0,5.740451E0,1E0,7.451186E0,1.2447801E0,4.495671E0,1.9976209E0,2.49805E0,1.2493289E0,1.2487211E0],"tree_param":{"num_deleted":"0","num_feature":"4","num_nodes":"25","size_leaf_vector":"1"}},{"base_weights":[-6.248935E-4,-1.4320467E0,1.7471444E-2,-1.5140672E-2,-1.1178148E0,-1.1640812E0,6.2071024E-3,-1.1965919E0,2.0672001E-3,-1.3459593E0,-7.5377625E-1,-5.023935E-3,-1.3695901E-2,-2.5744584E-1,-1.1325368E0,-1.2280596E-2,2.1085961E-1,-0E0,-1.2666725E-2,1.0363538E-2,-1.6461077E-1,-6.1824745E-3,2.7117214E-1,-2.104492E-3,6.323443E-3],"categories":[],"categories_nodes":[],"categories_segments":[],"categories_sizes":[],"default_left":[0,0,0,0,0,0,0,0,0,0,0,0,0,0,0,0,0,0,0,0,0,0,0,0,0],"id":13,"left_children":[1,3,-1,-1,5,7,-1,9,-1,11,13,-1,-1,15,17,-1,19,-1,-1,-1,21,-1,23,-1,-1],"loss_changes":[1.2692322E3,5.4959106E0,0E0,0E0,5.6734924E0,2.9348373E0,0E0,2.8914185E0,0E0,1.6682434E-1,2.935896E0,0E0,0E0,4.2248507E0,1.4345531E0,0E0,2.2592971E0,0E0,0E0,0E0,1.2539337E0,0E0,7.415026E-1,0E0,0E0],"parents":[2147483647,0,0,1,1,4,4,5,5,7,7,9,9,10,10,13,13,14,14,16,16,20,20,22,22],"right_children":[2,4,-1,-1,6,8,-1,10,-1,12,14,-1,-1,16,18,-1,20,-1,-1,-1,22,-1,24,-1,-1],"split_conditions":[9.9081135E-1,9.609969E-3,1.7471444E-2,-1.5140672E-2,9.8973036E-1,3.0595914E-3,6.2071024E-3,9.875981E-1,2.0672001E-3,9.752191E-1,5.2570354E-4,-5.023935E-3,-1.3695901E-2,2.4696326E-4,9.8774755E-1,-1.2280596E-2,3.2330488E-4,-0E0,-1.2666725E-2,1.0363538E-2,7.252419E-4,-6.1824745E-3,4.563492E-4,-2.104492E-3,6.323443E-3],"split_indices":[2,2,0,0,0,1,0,0,0,0,1,0,0,1,0,0,1,0,0,0,3,0,1,0,0],"split_type":[0,0,0,0,0,0,0,0,0,0,0,0,0,0,0,0,0,0,0,0,0,0,0,0,0],"sum_hessian":[5.0532855E2,2.7790512E2,2.2742345E2,2.1735335E2,6.055177E1,5.9303967E1,1.2478049E0,5.805421E1,1.249756E0,4.188598E1,1.6168232E1,1.747962E0,4.0138016E1,7.725019E0,8.443213E0,1.9861534E0,5.7388654E0,1E0,7.4432135E0,1.2439088E0,4.4949565E0,1.9972134E0,2.4977431E0,1.2492245E0,1.2485187E0],"tree_param":{"num_deleted":"0","num_feature":"4","num_nodes":"25","size_leaf_vector":"1"}},{"base_weights":[-6.662856E-4,-1.4200394E0,1.7335143E-2,-1.501454E-2,-1.1082844E0,-1.1542697E0,6.173575E-3,-1.1865644E0,2.0557507E-3,-1.3346286E0,-7.477412E-1,-4.9925437E-3,-1.3580119E-2,-2.5542825E-1,-1.123569E0,-1.2207553E-2,2.1005094E-1,-0E0,-1.2567767E-2,1.0310396E-2,-1.6334474E-1,-6.1484626E-3,2.7023613E-1,-2.089375E-3,6.2939012E-3],"categories":[],"categories_nodes":[],"categories_segments":[],"categories_sizes":[],"default_left":[0,0,0,0,0,0,0,0,0,0,0,0,0,0,0,0,0,0,0,0,0,0,0,0,0],"id":14,"left_children":[1,3,-1,-1,5,7,-1,9,-1,11,13,-1,-1,15,17,-1,19,-1,-1,-1,21,-1,23,-1,-1],"loss_changes":[1.2465088E3,5.404175E0,0E0,0E0,5.5916824E0,2.8893127E0,0E0,2.8347168E0,0E0,1.586914E-1,2.8872852E0,0E0,0E0,4.175211E0,1.412075E0,0E0,2.233719E0,0E0,0E0,0E0,1.2417109E0,0E0,7.333949E-1,0E0,0E0],"parents":[2147483647,0,0,1,1,4,4,5,5,7,7,9,9,10,10,13,13,14,14,16,16,20,20,22,22],"right_children":[2,4,-1,-1,6,8,-1,10,-1,12,14,-1,-1,16,18,-1,20,-1,-1,-1,22,-1,24,-1,-1],"split_conditions":[9.9081135E-1,9.609969E-3,1.7335143E-2,-1.501454E-2,9.8973036E-1,3.0595914E-3,6.173575E-3,9.875981E-1,2.0557507E-3,9.752191E-1,5.2570354E-4,-4.9925437E-3,-1.3580119E-2,2.4696326E-4,9.8774755E-1,-1.2207553E-2,3.2330488E-4,-0E0,-1.2567767E-2,1.0310396E-2,4.2411624E-4,-6.1484626E-3,7.6657097E-4,-2.089375E-3,6.2939012E-3],"split_indices":[2,2,0,0,0,1,0,0,0,0,1,0,0,1,0,0,1,0,0,0,1,0,3,0,0],"split_type":[0,0,0,0,0,0,0,0,0,0,0,0,0,0,0,0,0,0,0,0,0,0,0,0,0],"sum_hessian":[5.0441245E2,2.7748264E2,2.2692981E2,2.1699765E2,6.0484993E1,5.9237526E1,1.2474684E0,5.798781E1,1.2497185E0,4.1831867E1,1.6155941E1,1.7476513E0,4.0084213E1,7.721222E0,8.434719E0,1.9840506E0,5.737171E0,1E0,7.4347186E0,1.2429761E0,4.4941955E0,1.996799E0,2.4973962E0,1.2491133E0,1.2482829E0],"tree_param":{"num_deleted":"0","num_feature":"4","num_nodes":"25","size_leaf_vector":"1"}},{"base_weights":[-7.067307E-4,-1.4082614E0,1.7202169E-2,-1.4890919E-2,-1.0989078E0,-1.1446179E0,6.1402936E-3,-1.1767021E0,2.0443678E-3,-1.3234946E0,-7.417881E-1,-4.9613887E-3,-1.3466381E-2,-2.5343293E-1,-1.114735E0,-1.2135523E-2,2.0924908E-1,-0E0,-1.24703655E-2,1.0257824E-2,-1.6208923E-1,-6.1122645E-3,2.6909018E-1,-2.086523E-3,6.2733362E-3],"categories":[],"categories_nodes":[],"categories_segments":[],"categories_sizes":[],"default_left":[0,0,0,0,0,0,0,0,0,0,0,0,0,0,0,0,0,0,0,0,0,0,0,0,0],"id":15,"left_children":[1,3,-1,-1,5,7,-1,9,-1,11,13,-1,-1,15,17,-1,19,-1,-1,-1,21,-1,23,-1,-1],"loss_changes":[1.224332E3,5.315979E0,0E0,0E0,5.5114746E0,2.8447952E0,0E0,2.7796707E0,0E0,1.5091705E-1,2.839735E0,0E0,0E0,4.126367E0,1.3901148E0,0E0,2.208499E0,0E0,0E0,0E0,1.2283162E0,0E0,7.2940755E-1,0E0,0E0],"parents":[2147483647,0,0,1,1,4,4,5,5,7,7,9,9,10,10,13,13,14,14,16,16,20,20,22,22],"right_children":[2,4,-1,-1,6,8,-1,10,-1,12,14,-1,-1,16,18,-1,20,-1,-1,-1,22,-1,24,-1,-1],"split_conditions":[9.9081135E-1,9.609969E-3,1.7202169E-2,-1.4890919E-2,9.8973036E-1,3.0595914E-3,6.1402936E-3,9.875981E-1,2.0443678E-3,9.752191E-1,5.2570354E-4,-4.9613887E-3,-1.3466381E-2,2.4696326E-4,9.8774755E-1,-1.2135523E-2,3.2330488E-4,-0E0,-1.24703655E-2,1.0257824E-2,7.252419E-4,-6.1122645E-3,4.563492E-4,-2.086523E-3,6.2733362E-3],"split_indices":[2,2,0,0,0,1,0,0,0,0,1,0,0,1,0,0,1,0,0,0,3,0,1,0,0],"split_type":[0,0,0,0,0,0,0,0,0,0,0,0,0,0,0,0,0,0,0,0,0,0,0,0,0],"sum_hessian":[5.0344305E2,2.7703555E2,2.264075E2,2.1662128E2,6.0414276E1,5.9167168E1,1.24711E0,5.791749E1,1.2496786E0,4.1774593E1,1.6142897E1,1.7473208E0,4.002727E1,7.71718E0,8.425715E0,1.9818156E0,5.7353644E0,1E0,7.425716E0,1.2419829E0,4.4933815E0,1.9963346E0,2.497047E0,1.2489945E0,1.2480524E0],"tree_param":{"num_deleted":"0","num_feature":"4","num_nodes":"25","size_leaf_vector":"1"}},{"base_weights":[-7.4674113E-4,-1.3967055E0,1.7072402E-2,-1.4769733E-2,-1.0896803E0,-1.1351211E0,6.1072526E-3,-1.1669998E0,2.033049E-3,-1.312551E0,-7.3591465E-1,-4.9304646E-3,-1.3354621E-2,-2.514593E-1,-1.1060311E0,-1.2064478E-2,2.084535E-1,-0E0,-1.2374477E-2,1.0205814E-2,-1.6084415E-1,-6.0787415E-3,2.6816198E-1,-2.071578E-3,6.244108E-3],"categories":[],"categories_nodes":[],"categories_segments":[],"categories_sizes":[],"default_left":[0,0,0,0,0,0,0,0,0,0,0,0,0,0,0,0,0,0,0,0,0,0,0,0,0],"id":16,"left_children":[1,3,-1,-1,5,7,-1,9,-1,11,13,-1,-1,15,17,-1,19,-1,-1,-1,21,-1,23,-1,-1],"loss_changes":[1.2026835E3,5.231018E0,0E0,0E0,5.432823E0,2.801262E0,0E0,2.726204E0,0E0,1.4355469E-1,2.7932148E0,0E0,0E0,4.0782957E0,1.3686562E0,0E0,2.1836312E0,0E0,0E0,0E0,1.216357E0,0E0,7.214477E-1,0E0,0E0],"parents":[2147483647,0,0,1,1,4,4,5,5,7,7,9,9,10,10,13,13,14,14,16,16,20,20,22,22],"right_children":[2,4,-1,-1,6,8,-1,10,-1,12,14,-1,-1,16,18,-1,20,-1,-1,-1,22,-1,24,-1,-1],"split_conditions":[9.9081135E-1,9.609969E-3,1.7072402E-2,-1.4769733E-2,9.8973036E-1,3.0595914E-3,6.1072526E-3,9.875981E-1,2.033049E-3,9.752191E-1,5.2570354E-4,-4.9304646E-3,-1.3354621E-2,2.4696326E-4,9.8774755E-1,-1.2064478E-2,3.2330488E-4,-0E0,-1.2374477E-2,1.0205814E-2,4.2411624E-4,-6.0787415E-3,7.6657097E-4,-2.071578E-3,6.244108E-3],"split_indices":[2,2,0,0,0,1,0,0,0,0,1,0,0,1,0,0,1,0,0,0,1,0,3,0,0],"split_type":[0,0,0,0,0,0,0,0,0,0,0,0,0,0,0,0,0,0,0,0,0,0,0,0,0],"sum_hessian":[5.0242212E2,2.7656467E2,2.2585745E2,2.162249E2,6.0339752E1,5.909302E1,1.2467301E0,5.7843388E1,1.2496364E0,4.171426E1,1.6129126E1,1.746971E0,3.996729E1,7.7129045E0,8.416221E0,1.9794514E0,5.733453E0,1E0,7.4162207E0,1.2409307E0,4.4925222E0,1.995867E0,2.4966552E0,1.2488705E0,1.2477847E0],"tree_param":{"num_deleted":"0","num_feature":"4","num_nodes":"25","size_leaf_vector":"1"}},{"base_weights":[-7.859124E-4,-1.3853642E0,1.6945733E-2,-1.465089E-2,-1.0805981E0,-1.1257751E0,6.0744523E-3,-1.1574532E0,2.0217968E-3,-1.3017925E0,-7.301193E-1,-4.8997723E-3,-1.3244782E-2,-2.4950716E-1,-1.0974538E0,-1.19944E-2,2.0766455E-1,-0E0,-1.228006E-2,1.0154354E-2,-1.5960939E-1,-6.043069E-3,2.6702687E-1,-2.0688032E-3,6.223801E-3],"categories":[],"categories_nodes":[],"categories_segments":[],"categories_sizes":[],"default_left":[0,0,0,0,0,0,0,0,0,0,0,0,0,0,0,0,0,0,0,0,0,0,0,0,0],"id":17,"left_children":[1,3,-1,-1,5,7,-1,9,-1,11,13,-1,-1,15,17,-1,19,-1,-1,-1,21,-1,23,-1,-1],"loss_changes":[1.1815458E3,5.148926E0,0E0,0E0,5.3556824E0,2.7586823E0,0E0,2.674263E0,0E0,1.3652802E-1,2.7476892E0,0E0,0E0,4.0309834E0,1.3476801E0,0E0,2.1591089E0,0E0,0E0,0E0,1.2032572E0,0E0,7.175448E-1,0E0,0E0],"parents":[2147483647,0,0,1,1,4,4,5,5,7,7,9,9,10,10,13,13,14,14,16,16,20,20,22,22],"right_children":[2,4,-1,-1,6,8,-1,10,-1,12,14,-1,-1,16,18,-1,20,-1,-1,-1,22,-1,24,-1,-1],"split_conditions":[9.9081135E-1,9.609969E-3,1.6945733E-2,-1.465089E-2,9.8973036E-1,3.0595914E-3,6.0744523E-3,9.875981E-1,2.0217968E-3,9.752191E-1,5.2570354E-4,-4.8997723E-3,-1.3244782E-2,2.4696326E-4,9.8774755E-1,-1.19944E-2,3.2330488E-4,-0E0,-1.228006E-2,1.0154354E-2,7.252419E-4,-6.043069E-3,4.563492E-4,-2.0688032E-3,6.223801E-3],"split_indices":[2,2,0,0,0,1,0,0,0,0,1,0,0,1,0,0,1,0,0,0,3,0,1,0,0],"split_type":[0,0,0,0,0,0,0,0,0,0,0,0,0,0,0,0,0,0,0,0,0,0,0,0,0],"sum_hessian":[5.013514E2,2.7607077E2,2.2528064E2,2.1580925E2,6.0261528E1,5.90152E1,1.2463292E0,5.776561E1,1.2495918E0,4.1650967E1,1.6114641E1,1.7466018E0,3.9904366E1,7.708394E0,8.406247E0,1.9769614E0,5.7314324E0,1E0,7.4062476E0,1.2398202E0,4.4916124E0,1.9953479E0,2.4962645E0,1.2487376E0,1.2475269E0],"tree_param":{"num_deleted":"0","num_feature":"4","num_nodes":"25","size_leaf_vector":"1"}},{"base_weights":[-8.2436827E-4,-1.3742305E0,1.6822053E-2,-1.4534318E-2,-1.0716565E0,-1.116575E0,6.041889E-3,-1.1480571E0,2.0106086E-3,-1.2912127E0,-7.2439986E-1,-4.8693027E-3,-1.3136797E-2,-2.4757603E-1,-1.0889999E0,-1.1925269E-2,2.0688187E-1,-0E0,-1.2187074E-2,1.0103438E-2,-1.5838474E-1,-6.0100243E-3,2.6610658E-1,-2.054028E-3,6.1948854E-3],"categories":[],"categories_nodes":[],"categories_segments":[],"categories_sizes":[],"default_left":[0,0,0,0,0,0,0,0,0,0,0,0,0,0,0,0,0,0,0,0,0,0,0,0,0],"id":18,"left_children":[1,3,-1,-1,5,7,-1,9,-1,11,13,-1,-1,15,17,-1,19,-1,-1,-1,21,-1,23,-1,-1],"loss_changes":[1.1609025E3,5.069824E0,0E0,0E0,5.2800217E0,2.7170105E0,0E0,2.623787E0,0E0,1.2982178E-1,2.7031326E0,0E0,0E0,3.9844155E0,1.3271723E0,0E0,2.1349263E0,0E0,0E0,0E0,1.1915561E0,0E0,7.097299E-1,0E0,0E0],"parents":[2147483647,0,0,1,1,4,4,5,5,7,7,9,9,10,10,13,13,14,14,16,16,20,20,22,22],"right_children":[2,4,-1,-1,6,8,-1,10,-1,12,14,-1,-1,16,18,-1,20,-1,-1,-1,22,-1,24,-1,-1],"split_conditions":[9.9081135E-1,9.609969E-3,1.6822053E-2,-1.4534318E-2,9.8973036E-1,3.0595914E-3,6.041889E-3,9.875981E-1,2.0106086E-3,9.752191E-1,5.2570354E-4,-4.8693027E-3,-1.3136797E-2,2.4696326E-4,9.8774755E-1,-1.1925269E-2,3.2330488E-4,-0E0,-1.2187074E-2,1.0103438E-2,4.2411624E-4,-6.0100243E-3,7.6657097E-4,-2.054028E-3,6.1948854E-3],"split_indices":[2,2,0,0,0,1,0,0,0,0,1,0,0,1,0,0,1,0,0,0,1,0,3,0,0],"split_type":[0,0,0,0,0,0,0,0,0,0,0,0,0,0,0,0,0,0,0,0,0,0,0,0,0],"sum_hessian":[5.0023257E2,2.7555463E2,2.2467793E2,2.153749E2,6.017974E1,5.893383E1,1.2459074E0,5.7684288E1,1.2495449E0,4.1584816E1,1.609947E1,1.7462144E0,3.9838604E1,7.7036595E0,8.39581E0,1.9743477E0,5.7293115E0,1E0,7.39581E0,1.238653E0,4.4906588E0,1.9948293E0,2.4958293E0,1.2486011E0,1.2472283E0],"tree_param":{"num_deleted":"0","num_feature":"4","num_nodes":"25","size_leaf_vector":"1"}},{"base_weights":[-8.6207717E-4,-1.3632979E0,1.6701264E-2,-1.4419943E-2,-1.0628517E0,-1.107517E0,6.0095605E-3,-1.1388077E0,1.9994841E-3,-1.2808067E0,-7.18755E-1,-4.8390594E-3,-1.3030614E-2,-2.4566561E-1,-1.0806661E0,-1.18570635E-2,2.0610563E-1,-0E0,-1.2095481E-2,1.00530535E-2,-1.5717019E-1,-5.974865E-3,2.6498216E-1,-2.0513278E-3,6.1748317E-3],"categories":[],"categories_nodes":[],"categories_segments":[],"categories_sizes":[],"default_left":[0,0,0,0,0,0,0,0,0,0,0,0,0,0,0,0,0,0,0,0,0,0,0,0,0],"id":19,"left_children":[1,3,-1,-1,5,7,-1,9,-1,11,13,-1,-1,15,17,-1,19,-1,-1,-1,21,-1,23,-1,-1],"loss_changes":[1.1407374E3,4.9935303E0,0E0,0E0,5.205765E0,2.6762161E0,0E0,2.5746994E0,0E0,1.2345886E-1,2.6595135E0,0E0,0E0,3.938574E0,1.3071184E0,0E0,2.1110785E0,0E0,0E0,0E0,1.1787436E0,0E0,7.059095E-1,0E0,0E0],"parents":[2147483647,0,0,1,1,4,4,5,5,7,7,9,9,10,10,13,13,14,14,16,16,20,20,22,22],"right_children":[2,4,-1,-1,6,8,-1,10,-1,12,14,-1,-1,16,18,-1,20,-1,-1,-1,22,-1,24,-1,-1],"split_conditions":[9.9081135E-1,9.609969E-3,1.6701264E-2,-1.4419943E-2,9.8973036E-1,3.0595914E-3,6.0095605E-3,9.875981E-1,1.9994841E-3,9.752191E-1,5.2570354E-4,-4.8390594E-3,-1.3030614E-2,2.4696326E-4,9.8774755E-1,-1.18570635E-2,3.2330488E-4,-0E0,-1.2095481E-2,1.00530535E-2,7.252419E-4,-5.974865E-3,4.563492E-4,-2.0513278E-3,6.1748317E-3],"split_indices":[2,2,0,0,0,1,0,0,0,0,1,0,0,1,0,0,1,0,0,0,3,0,1,0,0],"split_type":[0,0,0,0,0,0,0,0,0,0,0,0,0,0,0,0,0,0,0,0,0,0,0,0,0],"sum_hessian":[4.990673E2,2.7501703E2,2.2405023E2,2.1492256E2,6.0094486E1,5.884902E1,1.2454655E0,5.7599525E1,1.2494956E0,4.15159E1,1.6083624E1,1.7458087E0,3.9770092E1,7.6986995E0,8.384923E0,1.971614E0,5.7270856E0,1E0,7.3849235E0,1.23743E0,4.4896555E0,1.9942573E0,2.4953983E0,1.2484545E0,1.2469437E0],"tree_param":{"num_deleted":"0","num_feature":"4","num_nodes":"25","size_leaf_vector":"1"}},{"base_weights":[-8.994606E-4,-1.3525603E0,1.6583262E-2,-1.4307695E-2,-1.0541799E0,-1.0985969E0,5.9774653E-3,-1.1297005E0,1.9884235E-3,-1.270569E0,-7.1318275E-1,-4.809037E-3,-1.2926179E-2,-2.4377541E-1,-1.0724492E0,-1.1789762E-2,2.0533556E-1,-0E0,-1.2005242E-2,1.0003196E-2,-1.5596554E-1,-5.942287E-3,2.6406953E-1,-2.0367207E-3,6.146221E-3],"categories":[],"categories_nodes":[],"categories_segments":[],"categories_sizes":[],"default_left":[0,0,0,0,0,0,0,0,0,0,0,0,0,0,0,0,0,0,0,0,0,0,0,0,0],"id":20,"left_children":[1,3,-1,-1,5,7,-1,9,-1,11,13,-1,-1,15,17,-1,19,-1,-1,-1,21,-1,23,-1,-1],"loss_changes":[1.1210352E3,4.9198E0,0E0,0E0,5.1328964E0,2.6362915E0,0E0,2.5269623E0,0E0,1.17378235E-1,2.6168032E0,0E0,0E0,3.8934445E0,1.2875013E0,0E0,2.0875597E0,0E0,0E0,0E0,1.1672934E0,0E0,6.982367E-1,0E0,0E0],"parents":[2147483647,0,0,1,1,4,4,5,5,7,7,9,9,10,10,13,13,14,14,16,16,20,20,22,22],"right_children":[2,4,-1,-1,6,8,-1,10,-1,12,14,-1,-1,16,18,-1,20,-1,-1,-1,22,-1,24,-1,-1],"split_conditions":[9.9081135E-1,9.609969E-3,1.6583262E-2,-1.4307695E-2,9.8973036E-1,3.0595914E-3,5.9774653E-3,9.875981E-1,1.9884235E-3,9.752191E-1,5.2570354E-4,-4.809037E-3,-1.2926179E-2,2.4696326E-4,9.8774755E-1,-1.1789762E-2,3.2330488E-4,-0E0,-1.2005242E-2,1.0003196E-2,4.2411624E-4,-5.942287E-3,7.6657097E-4,-2.0367207E-3,6.146221E-3],"split_indices":[2,2,0,0,0,1,0,0,0,0,1,0,0,1,0,0,1,0,0,0,1,0,3,0,0],"split_type":[0,0,0,0,0,0,0,0,0,0,0,0,0,0,0,0,0,0,0,0,0,0,0,0,0],"sum_hessian":[4.9785712E2,2.7445868E2,2.2339842E2,2.144528E2,6.0005886E1,5.8760883E1,1.2450036E0,5.751144E1,1.2494442E0,4.1444313E1,1.6067127E1,1.745385E0,3.969893E1,7.693525E0,8.373602E0,1.9687625E0,5.7247624E0,1E0,7.3736024E0,1.2361522E0,4.4886103E0,1.9936895E0,2.494921E0,1.2483058E0,1.246615E0],"tree_param":{"num_deleted":"0","num_feature":"4","num_nodes":"25","size_leaf_vector":"1"}},{"base_weights":[-9.359746E-4,-1.3420112E0,1.646796E-2,-1.4197504E-2,-1.0456376E0,-1.0898113E0,5.9455964E-3,-1.1207322E0,1.9774265E-3,-1.2604951E0,-7.076816E-1,-4.779235E-3,-1.2823441E-2,-2.4190535E-1,-1.0643464E0,-1.1723348E-2,2.0457172E-1,-0E0,-1.1916323E-2,9.953854E-3,-1.547708E-1,-5.90763E-3,2.6295573E-1,-2.0340937E-3,6.1264164E-3],"categories":[],"categories_nodes":[],"categories_segments":[],"categories_sizes":[],"default_left":[0,0,0,0,0,0,0,0,0,0,0,0,0,0,0,0,0,0,0,0,0,0,0,0,0],"id":21,"left_children":[1,3,-1,-1,5,7,-1,9,-1,11,13,-1,-1,15,17,-1,19,-1,-1,-1,21,-1,23,-1,-1],"loss_changes":[1.101781E3,4.8486633E0,0E0,0E0,5.0613937E0,2.5971985E0,0E0,2.4805145E0,0E0,1.1161041E-1,2.574977E0,0E0,0E0,3.8490121E0,1.2683096E0,0E0,2.0643635E0,0E0,0E0,0E0,1.1547616E0,0E0,6.9449663E-1,0E0,0E0],"parents":[2147483647,0,0,1,1,4,4,5,5,7,7,9,9,10,10,13,13,14,14,16,16,20,20,22,22],"right_children":[2,4,-1,-1,6,8,-1,10,-1,12,14,-1,-1,16,18,-1,20,-1,-1,-1,22,-1,24,-1,-1],"split_conditions":[9.9081135E-1,9.609969E-3,1.646796E-2,-1.4197504E-2,9.8973036E-1,3.0595914E-3,5.9455964E-3,9.875981E-1,1.9774265E-3,9.752191E-1,5.2570354E-4,-4.779235E-3,-1.2823441E-2,2.4696326E-4,9.8774755E-1,-1.1723348E-2,3.2330488E-4,-0E0,-1.1916323E-2,9.953854E-3,7.252419E-4,-5.90763E-3,4.563492E-4,-2.0340937E-3,6.1264164E-3],"split_indices":[2,2,0,0,0,1,0,0,0,0,1,0,0,1,0,0,1,0,0,0,3,0,1,0,0],"split_type":[0,0,0,0,0,0,0,0,0,0,0,0,0,0,0,0,0,0,0,0,0,0,0,0,0],"sum_hessian":[4.966036E2,2.7388028E2,2.2272333E2,2.1396623E2,5.991405E1,5.866953E1,1.2445221E0,5.742014E1,1.2493906E0,4.1370144E1,1.6049994E1,1.7449442E0,3.96252E1,7.688135E0,8.361858E0,1.9657967E0,5.7223387E0,1E0,7.361859E0,1.2348208E0,4.487518E0,1.993067E0,2.4944508E0,1.248146E0,1.2463046E0],"tree_param":{"num_deleted":"0","num_feature":"4","num_nodes":"25","size_leaf_vector":"1"}},{"base_weights":[-9.7198127E-4,-1.3316448E0,1.6355265E-2,-1.4089304E-2,-1.037221E0,-1.0811559E0,5.9139566E-3,-1.1118981E0,1.9664916E-3,-1.2505797E0,-7.0224977E-1,-4.749651E-3,-1.2722345E-2,-2.4005476E-1,-1.0563546E0,-1.16578E-2,2.0381397E-1,-0E0,-1.1828687E-2,9.905019E-3,-1.535857E-1,-5.8755088E-3,2.6205072E-1,-2.019651E-3,6.098107E-3],"categories":[],"categories_nodes":[],"categories_segments":[],"categories_sizes":[],"default_left":[0,0,0,0,0,0,0,0,0,0,0,0,0,0,0,0,0,0,0,0,0,0,0,0,0],"id":22,"left_children":[1,3,-1,-1,5,7,-1,9,-1,11,13,-1,-1,15,17,-1,19,-1,-1,-1,21,-1,23,-1,-1],"loss_changes":[1.0829609E3,4.7798767E0,0E0,0E0,4.991188E0,2.5589066E0,0E0,2.4353104E0,0E0,1.0608673E-1,2.534009E0,0E0,0E0,3.8052623E0,1.2495289E0,0E0,2.0414855E0,0E0,0E0,0E0,1.1435568E0,0E0,6.8696284E-1,0E0,0E0],"parents":[2147483647,0,0,1,1,4,4,5,5,7,7,9,9,10,10,13,13,14,14,16,16,20,20,22,22],"right_children":[2,4,-1,-1,6,8,-1,10,-1,12,14,-1,-1,16,18,-1,20,-1,-1,-1,22,-1,24,-1,-1],"split_conditions":[9.9081135E-1,9.609969E-3,1.6355265E-2,-1.4089304E-2,9.8973036E-1,3.0595914E-3,5.9139566E-3,9.875981E-1,1.9664916E-3,9.752191E-1,5.2570354E-4,-4.749651E-3,-1.2722345E-2,2.4696326E-4,9.8774755E-1,-1.16578E-2,3.2330488E-4,-0E0,-1.1828687E-2,9.905019E-3,4.2411624E-4,-5.8755088E-3,7.6657097E-4,-2.019651E-3,6.098107E-3],"split_indices":[2,2,0,0,0,1,0,0,0,0,1,0,0,1,0,0,1,0,0,0,1,0,3,0,0],"split_type":[0,0,0,0,0,0,0,0,0,0,0,0,0,0,0,0,0,0,0,0,0,0,0,0,0],"sum_hessian":[4.953084E2,2.7328262E2,2.220258E2,2.1346352E2,5.981909E1,5.857507E1,1.2440214E0,5.7325737E1,1.2493348E0,4.1293488E1,1.6032248E1,1.7444859E0,3.9549004E1,7.6825404E0,8.349707E0,1.9627191E0,5.7198215E0,1E0,7.3497066E0,1.233437E0,4.4863844E0,1.9924519E0,2.4939325E0,1.2479858E0,1.2459466E0],"tree_param":{"num_deleted":"0","num_feature":"4","num_nodes":"25","size_leaf_vector":"1"}},{"base_weights":[-1.0073932E-3,-1.3214555E0,1.6245093E-2,-1.3983033E-2,-1.0289265E0,-1.0726273E0,5.8825403E-3,-1.1031946E0,1.9556205E-3,-1.2408181E0,-6.96886E-1,-4.720282E-3,-1.26228435E-2,-2.3822373E-1,-1.0484712E0,-1.1593103E-2,2.0306225E-1,-0E0,-1.1742299E-2,9.856684E-3,-1.5241046E-1,-5.8413437E-3,2.609472E-1,-2.017097E-3,6.078546E-3],"categories":[],"categories_nodes":[],"categories_segments":[],"categories_sizes":[],"default_left":[0,0,0,0,0,0,0,0,0,0,0,0,0,0,0,0,0,0,0,0,0,0,0,0,0],"id":23,"left_children":[1,3,-1,-1,5,7,-1,9,-1,11,13,-1,-1,15,17,-1,19,-1,-1,-1,21,-1,23,-1,-1],"loss_changes":[1.0645618E3,4.713318E0,0E0,0E0,4.9222717E0,2.5213928E0,0E0,2.3912888E0,0E0,1.0083008E-1,2.4938717E0,0E0,0E0,3.7621818E0,1.2311459E0,0E0,2.0189207E0,0E0,0E0,0E0,1.1312982E0,0E0,6.833017E-1,0E0,0E0],"parents":[2147483647,0,0,1,1,4,4,5,5,7,7,9,9,10,10,13,13,14,14,16,16,20,20,22,22],"right_children":[2,4,-1,-1,6,8,-1,10,-1,12,14,-1,-1,16,18,-1,20,-1,-1,-1,22,-1,24,-1,-1],"split_conditions":[9.9081135E-1,9.609969E-3,1.6245093E-2,-1.3983033E-2,9.8973036E-1,3.0595914E-3,5.8825403E-3,9.875981E-1,1.9556205E-3,9.752191E-1,5.2570354E-4,-4.720282E-3,-1.26228435E-2,2.4696326E-4,9.8774755E-1,-1.1593103E-2,3.2330488E-4,-0E0,-1.1742299E-2,9.856684E-3,7.252419E-4,-5.8413437E-3,4.563492E-4,-2.017097E-3,6.078546E-3],"split_indices":[2,2,0,0,0,1,0,0,0,0,1,0,0,1,0,0,1,0,0,0,3,0,1,0,0],"split_type":[0,0,0,0,0,0,0,0,0,0,0,0,0,0,0,0,0,0,0,0,0,0,0,0,0],"sum_hessian":[4.939729E2,2.726663E2,2.2130663E2,2.1294519E2,5.9721104E1,5.84776E1,1.2435019E0,5.7228325E1,1.2492769E0,4.1214424E1,1.6013899E1,1.7440109E0,3.9470413E1,7.6767387E0,8.337159E0,1.9595323E0,5.7172065E0,1E0,7.337159E0,1.2320017E0,4.485205E0,1.9917806E0,2.4934244E0,1.2478132E0,1.2456111E0],"tree_param":{"num_deleted":"0","num_feature":"4","num_nodes":"25","size_leaf_vector":"1"}},{"base_weights":[-1.0423517E-3,-1.3114378E0,1.6137362E-2,-1.3878631E-2,-1.0207511E0,-1.0642222E0,5.851345E-3,-1.0946184E0,1.9448102E-3,-1.2312063E0,-6.915886E-1,-4.691125E-3,-1.2524894E-2,-2.3641166E-1,-1.0406934E0,-1.1529238E-2,2.0231645E-1,-0E0,-1.1657132E-2,9.808839E-3,-1.5124455E-1,-5.8096694E-3,2.6004964E-1,-2.0028178E-3,6.050532E-3],"categories":[],"categories_nodes":[],"categories_segments":[],"categories_sizes":[],"default_left":[0,0,0,0,0,0,0,0,0,0,0,0,0,0,0,0,0,0,0,0,0,0,0,0,0],"id":24,"left_children":[1,3,-1,-1,5,7,-1,9,-1,11,13,-1,-1,15,17,-1,19,-1,-1,-1,21,-1,23,-1,-1],"loss_changes":[1.0465703E3,4.648987E0,0E0,0E0,4.854576E0,2.4846497E0,0E0,2.3484116E0,0E0,9.582138E-2,2.454545E0,0E0,0E0,3.7197573E0,1.21315E0,0E0,1.996662E0,0E0,0E0,0E0,1.1203327E0,0E0,6.759043E-1,0E0,0E0],"parents":[2147483647,0,0,1,1,4,4,5,5,7,7,9,9,10,10,13,13,14,14,16,16,20,20,22,22],"right_children":[2,4,-1,-1,6,8,-1,10,-1,12,14,-1,-1,16,18,-1,20,-1,-1,-1,22,-1,24,-1,-1],"split_conditions":[9.9081135E-1,9.609969E-3,1.6137362E-2,-1.3878631E-2,9.8973036E-1,3.0595914E-3,5.851345E-3,9.875981E-1,1.9448102E-3,9.752191E-1,5.2570354E-4,-4.691125E-3,-1.2524894E-2,2.4696326E-4,9.8774755E-1,-1.1529238E-2,3.2330488E-4,-0E0,-1.1657132E-2,9.808839E-3,4.2411624E-4,-5.8096694E-3,7.6657097E-4,-2.0028178E-3,6.050532E-3],"split_indices":[2,2,0,0,0,1,0,0,0,0,1,0,0,1,0,0,1,0,0,0,1,0,3,0,0],"split_type":[0,0,0,0,0,0,0,0,0,0,0,0,0,0,0,0,0,0,0,0,0,0,0,0,0],"sum_hessian":[4.9259857E2,2.7203198E2,2.2056657E2,2.1241179E2,5.9620197E1,5.8377235E1,1.2429639E0,5.7128017E1,1.249217E0,4.113305E1,1.5994969E1,1.7435199E0,3.938953E1,7.670741E0,8.324227E0,1.9562391E0,5.7145023E0,1E0,7.324228E0,1.230516E0,4.4839864E0,1.9911199E0,2.4928665E0,1.2476419E0,1.2452246E0],"tree_param":{"num_deleted":"0","num_feature":"4","num_nodes":"25","size_leaf_vector":"1"}},{"base_weights":[-1.0766977E-3,-1.3015867E0,1.6031994E-2,-1.3776039E-2,-1.0126917E0,-1.0559373E0,5.820369E-3,-1.0861663E0,1.9340621E-3,-1.2217399E0,-6.8635625E-1,-4.662179E-3,-1.24284495E-2,-2.3461829E-1,-1.0330187E0,-1.1466186E-2,2.0157665E-1,-0E0,-1.1573151E-2,9.761478E-3,-1.5008818E-1,-5.7759844E-3,2.5895652E-1,-2.0003326E-3,6.031213E-3],"categories":[],"categories_nodes":[],"categories_segments":[],"categories_sizes":[],"default_left":[0,0,0,0,0,0,0,0,0,0,0,0,0,0,0,0,0,0,0,0,0,0,0,0,0],"id":25,"left_children":[1,3,-1,-1,5,7,-1,9,-1,11,13,-1,-1,15,17,-1,19,-1,-1,-1,21,-1,23,-1,-1],"loss_changes":[1.0289739E3,4.5867004E0,0E0,0E0,4.7881126E0,2.4486237E0,0E0,2.3066254E0,0E0,9.1049194E-2,2.4160042E0,0E0,0E0,3.6779742E0,1.195529E0,0E0,1.9747055E0,0E0,0E0,0E0,1.1083412E0,0E0,6.723197E-1,0E0,0E0],"parents":[2147483647,0,0,1,1,4,4,5,5,7,7,9,9,10,10,13,13,14,14,16,16,20,20,22,22],"right_children":[2,4,-1,-1,6,8,-1,10,-1,12,14,-1,-1,16,18,-1,20,-1,-1,-1,22,-1,24,-1,-1],"split_conditions":[9.9081135E-1,9.609969E-3,1.6031994E-2,-1.3776039E-2,9.8973036E-1,3.0595914E-3,5.820369E-3,9.875981E-1,1.9340621E-3,9.752191E-1,5.2570354E-4,-4.662179E-3,-1.24284495E-2,2.4696326E-4,9.8774755E-1,-1.1466186E-2,3.2330488E-4,-0E0,-1.1573151E-2,9.761478E-3,7.252419E-4,-5.7759844E-3,4.563492E-4,-2.0003326E-3,6.031213E-3],"split_indices":[2,2,0,0,0,1,0,0,0,0,1,0,0,1,0,0,1,0,0,0,3,0,1,0,0],"split_type":[0,0,0,0,0,0,0,0,0,0,0,0,0,0,0,0,0,0,0,0,0,0,0,0,0],"sum_hessian":[4.911868E2,2.7138037E2,2.1980644E2,2.1186389E2,5.951647E1,5.8274063E1,1.2424078E0,5.702491E1,1.249155E0,4.1049435E1,1.5975473E1,1.7430127E0,3.9306423E1,7.6645465E0,8.310926E0,1.9528422E0,5.7117043E0,1E0,7.3109264E0,1.2289808E0,4.482723E0,1.9904019E0,2.4923215E0,1.2474569E0,1.2448647E0],"tree_param":{"num_deleted":"0","num_feature":"4","num_nodes":"25","size_leaf_vector":"1"}},{"base_weights":[-1.1104131E-3,-1.2918968E0,1.5928913E-2,-1.3675201E-2,-1.0047448E0,-1.047769E0,5.7896096E-3,-1.077834E0,1.923376E-3,-1.2124143E0,-6.8118733E-1,-4.6334406E-3,-1.2333461E-2,-2.3284328E-1,-1.0254444E0,-1.140393E-2,2.0084259E-1,-0E0,-1.1490325E-2,9.714593E-3,-1.4894113E-1,-5.7447474E-3,2.5806627E-1,-1.986213E-3,6.0034874E-3],"categories":[],"categories_nodes":[],"categories_segments":[],"categories_sizes":[],"default_left":[0,0,0,0,0,0,0,0,0,0,0,0,0,0,0,0,0,0,0,0,0,0,0,0,0],"id":26,"left_children":[1,3,-1,-1,5,7,-1,9,-1,11,13,-1,-1,15,17,-1,19,-1,-1,-1,21,-1,23,-1,-1],"loss_changes":[1.0117612E3,4.5263367E0,0E0,0E0,4.722809E0,2.4133224E0,0E0,2.265892E0,0E0,8.649826E-2,2.3782277E0,0E0,0E0,3.6368194E0,1.1782694E0,0E0,1.953047E0,0E0,0E0,0E0,1.0976093E0,0E0,6.650552E-1,0E0,0E0],"parents":[2147483647,0,0,1,1,4,4,5,5,7,7,9,9,10,10,13,13,14,14,16,16,20,20,22,22],"right_children":[2,4,-1,-1,6,8,-1,10,-1,12,14,-1,-1,16,18,-1,20,-1,-1,-1,22,-1,24,-1,-1],"split_conditions":[9.9081135E-1,9.609969E-3,1.5928913E-2,-1.3675201E-2,9.8973036E-1,3.0595914E-3,5.7896096E-3,9.875981E-1,1.923376E-3,9.752191E-1,5.2570354E-4,-4.6334406E-3,-1.2333461E-2,2.4696326E-4,9.8774755E-1,-1.140393E-2,3.2330488E-4,-0E0,-1.1490325E-2,9.714593E-3,4.2411624E-4,-5.7447474E-3,7.6657097E-4,-1.986213E-3,6.0034874E-3],"split_indices":[2,2,0,0,0,1,0,0,0,0,1,0,0,1,0,0,1,0,0,0,1,0,3,0,0],"split_type":[0,0,0,0,0,0,0,0,0,0,0,0,0,0,0,0,0,0,0,0,0,0,0,0,0],"sum_hessian":[4.8973907E2,2.707121E2,2.1902698E2,2.1130206E2,5.9410027E1,5.816819E1,1.2418339E0,5.69191E1,1.249091E0,4.096367E1,1.5955431E1,1.7424897E0,3.922118E1,7.6581645E0,8.297267E0,1.9493446E0,5.70882E0,1E0,7.2972665E0,1.2273974E0,4.4814224E0,1.9896973E0,2.491725E0,1.2472748E0,1.2444503E0],"tree_param":{"num_deleted":"0","num_feature":"4","num_nodes":"25","size_leaf_vector":"1"}},{"base_weights":[-1.1437843E-3,-1.2823635E0,1.5828047E-2,-1.3576062E-2,-9.969076E-1,-1.0397142E0,5.759065E-3,-1.0696189E0,1.9127505E-3,-1.2032257E0,-6.7608064E-1,-4.604909E-3,-1.2239892E-2,-2.3108645E-1,-1.0179679E0,-1.13424575E-2,2.001144E-1,-0E0,-1.1408624E-2,9.668174E-3,-1.4780332E-1,-5.711532E-3,2.5698328E-1,-1.9837976E-3,5.984405E-3],"categories":[],"categories_nodes":[],"categories_segments":[],"categories_sizes":[],"default_left":[0,0,0,0,0,0,0,0,0,0,0,0,0,0,0,0,0,0,0,0,0,0,0,0,0],"id":27,"left_children":[1,3,-1,-1,5,7,-1,9,-1,11,13,-1,-1,15,17,-1,19,-1,-1,-1,21,-1,23,-1,-1],"loss_changes":[9.949204E2,4.4678955E0,0E0,0E0,4.658657E0,2.3787193E0,0E0,2.2261734E0,0E0,8.216095E-2,2.3411937E0,0E0,0E0,3.5962815E0,1.1613617E0,0E0,1.9316803E0,0E0,0E0,0E0,1.0858779E0,0E0,6.615461E-1,0E0,0E0],"parents":[2147483647,0,0,1,1,4,4,5,5,7,7,9,9,10,10,13,13,14,14,16,16,20,20,22,22],"right_children":[2,4,-1,-1,6,8,-1,10,-1,12,14,-1,-1,16,18,-1,20,-1,-1,-1,22,-1,24,-1,-1],"split_conditions":[9.9081135E-1,9.609969E-3,1.5828047E-2,-1.3576062E-2,9.8973036E-1,3.0595914E-3,5.759065E-3,9.875981E-1,1.9127505E-3,9.752191E-1,5.2570354E-4,-4.604909E-3,-1.2239892E-2,2.4696326E-4,9.8774755E-1,-1.13424575E-2,3.2330488E-4,-0E0,-1.1408624E-2,9.668174E-3,7.252419E-4,-5.711532E-3,4.563492E-4,-1.9837976E-3,5.984405E-3],"split_indices":[2,2,0,0,0,1,0,0,0,0,1,0,0,1,0,0,1,0,0,0,3,0,1,0,0],"split_type":[0,0,0,0,0,0,0,0,0,0,0,0,0,0,0,0,0,0,0,0,0,0,0,0,0],"sum_hessian":[4.8825662E2,2.7002774E2,2.1822887E2,2.1072679E2,5.930095E1,5.8059708E1,1.2412426E0,5.681068E1,1.2490251E0,4.0875828E1,1.59348545E1,1.7419517E0,3.9133877E1,7.6515937E0,8.28326E0,1.9457482E0,5.7058454E0,1E0,7.2832603E0,1.2257667E0,4.4800787E0,1.9889344E0,2.4911444E0,1.2470776E0,1.2440667E0],"tree_param":{"num_deleted":"0","num_feature":"4","num_nodes":"25","size_leaf_vector":"1"}},{"base_weights":[-1.1766475E-3,-1.2729824E0,1.572933E-2,-1.3478575E-2,-9.8917747E-1,-1.0317706E0,5.7287333E-3,-1.0615182E0,1.9021857E-3,-1.194171E0,-6.710347E-1,-4.5765815E-3,-1.2147705E-2,-2.2934735E-1,-1.0105871E0,-1.1281748E-2,1.9939186E-1,-0E0,-1.1328022E-2,9.622216E-3,-1.4667457E-1,-5.680723E-3,2.561004E-1,-1.9698357E-3,5.956968E-3],"categories":[],"categories_nodes":[],"categories_segments":[],"categories_sizes":[],"default_left":[0,0,0,0,0,0,0,0,0,0,0,0,0,0,0,0,0,0,0,0,0,0,0,0,0],"id":28,"left_children":[1,3,-1,-1,5,7,-1,9,-1,11,13,-1,-1,15,17,-1,19,-1,-1,-1,21,-1,23,-1,-1],"loss_changes":[9.7844073E2,4.4111633E0,0E0,0E0,4.595627E0,2.34478E0,0E0,2.187439E0,0E0,7.8022E-2,2.304883E0,0E0,0E0,3.5563483E0,1.1447954E0,0E0,1.9106011E0,0E0,0E0,0E0,1.0753747E0,0E0,6.544124E-1,0E0,0E0],"parents":[2147483647,0,0,1,1,4,4,5,5,7,7,9,9,10,10,13,13,14,14,16,16,20,20,22,22],"right_children":[2,4,-1,-1,6,8,-1,10,-1,12,14,-1,-1,16,18,-1,20,-1,-1,-1,22,-1,24,-1,-1],"split_conditions":[9.9081135E-1,9.609969E-3,1.572933E-2,-1.3478575E-2,9.8973036E-1,3.0595914E-3,5.7287333E-3,9.875981E-1,1.9021857E-3,9.752191E-1,5.2570354E-4,-4.5765815E-3,-1.2147705E-2,2.4696326E-4,9.8774755E-1,-1.1281748E-2,3.2330488E-4,-0E0,-1.1328022E-2,9.622216E-3,4.2411624E-4,-5.680723E-3,7.6657097E-4,-1.9698357E-3,5.956968E-3],"split_indices":[2,2,0,0,0,1,0,0,0,0,1,0,0,1,0,0,1,0,0,0,1,0,3,0,0],"split_type":[0,0,0,0,0,0,0,0,0,0,0,0,0,0,0,0,0,0,0,0,0,0,0,0,0],"sum_hessian":[4.867408E2,2.6932794E2,2.1741287E2,2.1013861E2,5.9189342E1,5.7948708E1,1.2406342E0,5.6699753E1,1.2489572E0,4.0785988E1,1.5913763E1,1.7413987E0,3.904459E1,7.644844E0,8.268919E0,1.942056E0,5.7027884E0,1E0,7.268919E0,1.2240897E0,4.4786983E0,1.9881879E0,2.4905105E0,1.2468851E0,1.2436254E0],"tree_param":{"num_deleted":"0","num_feature":"4","num_nodes":"25","size_leaf_vector":"1"}},{"base_weights":[-1.2091517E-3,-1.2637486E0,1.563269E-2,-1.3489846E-2,-1.0143694E0,-7.1252847E-1,-1.2189465E0,-7.9502803E-1,1.405278E-1,-1.6078585E-3,-1.2471719E0,-8.9302945E-1,-2.5205013E-1,-4.838302E-3,6.474387E-3,-1.0331752E0,-1.4272013E0,-1.2799247E-2,-6.25847E-1,-5.5433464E-1,2.389262E-3,-1.2123776E-2,-7.5548965E-1,-4.3846304E-3,-1.46767E-2,-1.762579E-1,-9.3421143E-1,-3.7935397E-4,-9.367864E-3,8.7371963E-4,-9.643563E-1,2.731749E-1,-9.233689E-3,-3.4242252E-1,-1.1443948E-2,-1.0792185E0,-2.0856543E-3,8.597351E-3,-2.0149675E-1,-7.6915273E-3,3.3193328E-3,-4.1783038E-1,-1.3424024E-2,-5.161918E-3,1.2850012E-3,1.9740525E-3,-9.133585E-3],"categories":[],"categories_nodes":[],"categories_segments":[],"categories_sizes":[],"default_left":[0,0,0,0,0,0,0,0,0,0,0,0,0,0,0,0,0,0,0,0,0,0,0,0,0,0,0,0,0,0,0,0,0,0,0,0,0,0,0,0,0,0,0,0,0,0,0],"id":29,"left_children":[1,3,-1,-1,5,7,9,11,13,-1,15,17,19,-1,-1,21,23,-1,25,27,-1,-1,29,-1,-1,31,33,-1,-1,-1,35,37,-1,39,-1,41,-1,-1,43,-1,-1,45,-1,-1,-1,-1,-1],"loss_changes":[9.623115E2,4.36261E0,0E0,0E0,3.6212692E0,2.3482533E0,1.0517998E0,1.3248463E0,1.4691417E0,0E0,9.316635E-2,1.7088928E0,1.0001626E0,0E0,0E0,1.89497E-1,1.3586426E-1,0E0,2.0977788E0,7.386234E-1,0E0,0E0,2.0853014E0,0E0,0E0,2.8954027E0,7.832346E-1,0E0,0E0,0E0,5.72917E-1,1.7565655E0,0E0,1.3784564E0,0E0,7.86396E-1,0E0,0E0,4.768747E-1,0E0,0E0,1.2946413E0,0E0,0E0,0E0,0E0,0E0],"parents":[2147483647,0,0,1,1,4,4,5,5,6,6,7,7,8,8,10,10,11,11,12,12,15,15,16,16,18,18,19,19,22,22,25,25,26,26,30,30,31,31,33,33,35,35,38,38,41,41],"right_children":[2,4,-1,-1,6,8,10,12,14,-1,16,18,20,-1,-1,22,24,-1,26,28,-1,-1,30,-1,-1,32,34,-1,-1,-1,36,38,-1,40,-1,42,-1,-1,44,-1,-1,46,-1,-1,-1,-1,-1],"split_conditions":[9.9081135E-1,8.996314E-3,1.563269E-2,-1.3489846E-2,9.396647E-4,8.9641666E-4,9.8221093E-1,8.7940163E-4,5.078244E-4,-1.6078585E-3,1.0421342E-3,9.8774755E-1,6.870019E-4,-4.838302E-3,6.474387E-3,7.879603E-4,9.137085E-3,-1.2799247E-2,9.8913914E-1,5.0427276E-4,2.389262E-3,-1.2123776E-2,1.2529319E-3,-4.3846304E-3,-1.46767E-2,5.078244E-4,5.849049E-5,-3.7935397E-4,-9.367864E-3,8.7371963E-4,1.0202129E-3,1.0687495E-2,-9.233689E-3,6.6550565E-5,-1.1443948E-2,1.3461506E-3,-2.0856543E-3,8.597351E-3,5.1356235E-4,-7.6915273E-3,3.3193328E-3,1.0776073E-2,-1.3424024E-2,-5.161918E-3,1.2850012E-3,1.9740525E-3,-9.133585E-3],"split_indices":[2,2,0,0,3,3,0,1,1,0,1,0,3,0,0,1,2,0,0,3,0,0,3,0,0,1,3,0,0,0,1,2,0,1,0,3,0,0,3,0,0,2,0,0,0,0,0],"split_type":[0,0,0,0,0,0,0,0,0,0,0,0,0,0,0,0,0,0,0,0,0,0,0,0,0,0,0,0,0,0,0,0,0,0,0,0,0,0,0,0,0,0,0,0,0,0,0],"sum_hessian":[4.8519296E2,2.686133E2,2.1657967E2,1.9690375E2,7.170956E1,3.0779394E1,4.093016E1,2.8127218E1,2.652176E0,1.2373883E0,3.9692772E1,2.3280638E1,4.846581E0,1.2088175E0,1.4433584E0,2.1214521E1,1.8478252E1,7.9614935E0,1.5319143E1,2.9198444E0,1.9267366E0,1.0847903E1,1.0366617E1,1.1919113E0,1.728634E1,6.8717957E0,8.447349E0,1.7100574E0,1.209787E0,2.1742647E0,8.192352E0,4.686774E0,2.1850216E0,2.902967E0,5.5443816E0,6.740087E0,1.4522654E0,1.7334714E0,2.9533024E0,1.6918164E0,1.2111504E0,2.655171E0,4.084916E0,1.2228875E0,1.7304149E0,1.4529054E0,1.2022654E0],"tree_param":{"num_deleted":"0","num_feature":"4","num_nodes":"47","size_leaf_vector":"1"}},{"base_weights":[-1.3854007E-3,-1.2548116E0,1.5538069E-2,-1.3289593E-2,-9.743412E-1,-1.0167382E0,5.7198755E-3,-1.0462352E0,1.8934318E-3,-1.1770781E0,-6.616553E-1,-4.503453E-3,-1.1974974E-2,-2.2544655E-1,-9.9752706E-1,-1.1175392E-2,1.9912638E-1,-4.1781315E-1,-1.1449334E-2,9.556895E-3,-1.4412254E-1,-5.4808306E-3,-9.980539E-4,-5.6292997E-3,2.5560185E-1,-1.9684783E-3,5.9474804E-3],"categories":[],"categories_nodes":[],"categories_segments":[],"categories_sizes":[],"default_left":[0,0,0,0,0,0,0,0,0,0,0,0,0,0,0,0,0,0,0,0,0,0,0,0,0,0,0],"id":30,"left_children":[1,3,-1,-1,5,7,-1,9,-1,11,13,-1,-1,15,17,-1,19,21,-1,-1,23,-1,-1,-1,25,-1,-1],"loss_changes":[9.4666205E2,4.297394E0,0E0,0E0,4.513424E0,2.2875748E0,0E0,2.1137733E0,0E0,7.814789E-2,2.247685E0,0E0,0E0,3.492589E0,3.1146526E-1,0E0,1.8772361E0,8.81539E-2,0E0,0E0,1.060742E0,0E0,0E0,0E0,6.525987E-1,0E0,0E0],"parents":[2147483647,0,0,1,1,4,4,5,5,7,7,9,9,10,10,13,13,14,14,16,16,17,17,20,20,24,24],"right_children":[2,4,-1,-1,6,8,-1,10,-1,12,14,-1,-1,16,18,-1,20,22,-1,-1,24,-1,-1,-1,26,-1,-1],"split_conditions":[9.9081135E-1,9.609969E-3,1.5538069E-2,-1.3289593E-2,9.8973036E-1,3.0595914E-3,5.7198755E-3,9.875981E-1,1.8934318E-3,9.752191E-1,5.2570354E-4,-4.503453E-3,-1.1974974E-2,2.4696326E-4,9.87931E-1,-1.1175392E-2,3.2330488E-4,1.0246714E-2,-1.1449334E-2,9.556895E-3,4.2411624E-4,-5.4808306E-3,-9.980539E-4,-5.6292997E-3,7.6657097E-4,-1.9684783E-3,5.9474804E-3],"split_indices":[2,2,0,0,0,1,0,0,0,0,1,0,0,1,0,0,1,2,0,0,1,0,0,0,3,0,0],"split_type":[0,0,0,0,0,0,0,0,0,0,0,0,0,0,0,0,0,0,0,0,0,0,0,0,0,0,0],"sum_hessian":[4.8363705E2,2.6790717E2,2.157299E2,2.089334E2,5.8973763E1,5.7733322E1,1.2404402E0,5.6484425E1,1.2488986E0,4.0607967E1,1.5876457E1,1.7398707E0,3.8868095E1,7.6336236E0,8.242833E0,1.9352397E0,5.698384E0,2.4483788E0,5.7944546E0,1.2215936E0,4.4767904E0,1.2236348E0,1.2247438E0,1.9868217E0,2.4899688E0,1.2465473E0,1.2434213E0],"tree_param":{"num_deleted":"0","num_feature":"4","num_nodes":"27","size_leaf_vector":"1"}},{"base_weights":[-1.4296434E-3,-1.2458725E0,1.5445405E-2,-1.3302616E-2,-9.994502E-1,-7.00621E-1,-1.2023214E0,-7.8302014E-1,1.4742187E-1,-1.5809548E-3,-1.2302933E0,-8.8067687E-1,-2.4394295E-1,-4.759763E-3,6.4997235E-3,-1.0176809E0,-1.4096051E0,-1.2637901E-2,-6.1649066E-1,-5.4658127E-1,2.4466524E-3,-1.1962552E-2,-7.419061E-1,-4.297767E-3,-1.4499299E-2,-1.7289923E-1,-9.212707E-1,-3.3417635E-4,-9.286864E-3,9.4248063E-4,-9.502678E-1,2.7197343E-1,-9.13667E-3,-3.3582288E-1,-1.129775E-2,-1.0649188E0,-2.011859E-3,8.539533E-3,-1.9945125E-1,-7.6274793E-3,3.3596926E-3,-4.0819052E-1,-1.3276797E-2,-5.0905077E-3,1.2551197E-3,2.0288308E-3,-9.039431E-3],"categories":[],"categories_nodes":[],"categories_segments":[],"categories_sizes":[],"default_left":[0,0,0,0,0,0,0,0,0,0,0,0,0,0,0,0,0,0,0,0,0,0,0,0,0,0,0,0,0,0,0,0,0,0,0,0,0,0,0,0,0,0,0,0,0,0,0],"id":31,"left_children":[1,3,-1,-1,5,7,9,11,13,-1,15,17,19,-1,-1,21,23,-1,25,27,-1,-1,29,-1,-1,31,33,-1,-1,-1,35,37,-1,39,-1,41,-1,-1,43,-1,-1,45,-1,-1,-1,-1,-1],"loss_changes":[9.312141E2,4.247101E0,0E0,0E0,3.5486069E0,2.329505E0,1.0248337E0,1.3138161E0,1.4521037E0,0E0,1.0981369E-1,1.6703091E0,9.96796E-1,0E0,0E0,2.0231247E-1,1.4253616E-1,0E0,2.0411801E0,7.3631704E-1,0E0,0E0,2.0636263E0,0E0,0E0,2.8385763E0,7.7003765E-1,0E0,0E0,0E0,5.725012E-1,1.7289876E0,0E0,1.3736134E0,0E0,7.8881836E-1,0E0,0E0,4.6122783E-1,0E0,0E0,1.2884386E0,0E0,0E0,0E0,0E0,0E0],"parents":[2147483647,0,0,1,1,4,4,5,5,6,6,7,7,8,8,10,10,11,11,12,12,15,15,16,16,18,18,19,19,22,22,25,25,26,26,30,30,31,31,33,33,35,35,38,38,41,41],"right_children":[2,4,-1,-1,6,8,10,12,14,-1,16,18,20,-1,-1,22,24,-1,26,28,-1,-1,30,-1,-1,32,34,-1,-1,-1,36,38,-1,40,-1,42,-1,-1,44,-1,-1,46,-1,-1,-1,-1,-1],"split_conditions":[9.9081135E-1,8.996314E-3,1.5445405E-2,-1.3302616E-2,9.396647E-4,8.9641666E-4,9.8221093E-1,8.7940163E-4,5.078244E-4,-1.5809548E-3,1.0421342E-3,9.8774755E-1,6.870019E-4,-4.759763E-3,6.4997235E-3,7.879603E-4,9.137085E-3,-1.2637901E-2,9.8913914E-1,5.0427276E-4,2.4466524E-3,-1.1962552E-2,1.2529319E-3,-4.297767E-3,-1.4499299E-2,5.078244E-4,5.849049E-5,-3.3417635E-4,-9.286864E-3,9.4248063E-4,1.0202129E-3,1.0687495E-2,-9.13667E-3,2.7563688E-5,-1.129775E-2,1.3461506E-3,-2.011859E-3,8.539533E-3,5.1356235E-4,-7.6274793E-3,3.3596926E-3,1.0776073E-2,-1.3276797E-2,-5.0905077E-3,1.2551197E-3,2.0288308E-3,-9.039431E-3],"split_indices":[2,2,0,0,3,3,0,1,1,0,1,0,3,0,0,1,2,0,0,3,0,0,3,0,0,1,3,0,0,0,1,2,0,3,0,3,0,0,3,0,0,2,0,0,0,0,0],"split_type":[0,0,0,0,0,0,0,0,0,0,0,0,0,0,0,0,0,0,0,0,0,0,0,0,0,0,0,0,0,0,0,0,0,0,0,0,0,0,0,0,0,0,0,0,0,0,0],"sum_hessian":[4.8203113E2,2.6716684E2,2.1486429E2,1.9573692E2,7.1429924E1,3.068478E1,4.0745144E1,2.8037247E1,2.6475334E0,1.2365115E0,3.9508633E1,2.320065E1,4.836596E0,1.2052889E0,1.4422445E0,2.1129993E1,1.837864E1,7.924752E0,1.5275898E1,2.9134123E0,1.9231837E0,1.0799268E1,1.0330726E1,1.1872903E0,1.7191349E1,6.8595185E0,8.416379E0,1.7075908E0,1.2058215E0,2.17004E0,8.1606865E0,4.6811028E0,2.1784158E0,2.895866E0,5.5205135E0,6.71178E0,1.4489058E0,1.7317742E0,2.9493287E0,1.6878448E0,1.208021E0,2.647715E0,4.064065E0,1.2202668E0,1.7290618E0,1.4505268E0,1.1971881E0],"tree_param":{"num_deleted":"0","num_feature":"4","num_nodes":"47","size_leaf_vector":"1"}},{"base_weights":[-1.6022347E-3,-1.2372049E0,1.5354635E-2,-1.310658E-2,-9.5996267E-1,-1.0021751E0,5.710772E-3,-1.0314326E0,1.8845072E-3,-1.1604512E0,-6.528136E-1,-4.4315904E-3,-1.1807022E-2,-2.216254E-1,-9.85311E-1,-1.1071517E-2,1.9885463E-1,-4.113272E-1,-1.13178445E-2,9.492591E-3,-1.4162064E-1,-9.5984235E-4,-5.4183737E-3,-5.578733E-3,2.550955E-1,-1.9671319E-3,5.937885E-3],"categories":[],"categories_nodes":[],"categories_segments":[],"categories_sizes":[],"default_left":[0,0,0,0,0,0,0,0,0,0,0,0,0,0,0,0,0,0,0,0,0,0,0,0,0,0,0],"id":32,"left_children":[1,3,-1,-1,5,7,-1,9,-1,11,13,-1,-1,15,17,-1,19,21,-1,-1,23,-1,-1,-1,25,-1,-1],"loss_changes":[9.1620886E2,4.1878967E0,0E0,0E0,4.433979E0,2.2325897E0,0E0,2.0396347E0,0E0,7.846451E-2,2.1958857E0,0E0,0E0,3.4304767E0,3.094206E-1,0E0,1.8446393E0,8.976948E-2,0E0,0E0,1.0463729E0,0E0,0E0,0E0,6.507627E-1,0E0,0E0],"parents":[2147483647,0,0,1,1,4,4,5,5,7,7,9,9,10,10,13,13,14,14,16,16,17,17,20,20,24,24],"right_children":[2,4,-1,-1,6,8,-1,10,-1,12,14,-1,-1,16,18,-1,20,22,-1,-1,24,-1,-1,-1,26,-1,-1],"split_conditions":[9.9081135E-1,9.609969E-3,1.5354635E-2,-1.310658E-2,9.8973036E-1,3.0595914E-3,5.710772E-3,9.875981E-1,1.8845072E-3,9.752191E-1,5.2570354E-4,-4.4315904E-3,-1.1807022E-2,2.4696326E-4,9.87931E-1,-1.1071517E-2,3.2330488E-4,1.2529319E-3,-1.13178445E-2,9.492591E-3,4.2411624E-4,-9.5984235E-4,-5.4183737E-3,-5.578733E-3,7.6657097E-4,-1.9671319E-3,5.937885E-3],"split_indices":[2,2,0,0,0,1,0,0,0,0,1,0,0,1,0,0,1,3,0,0,1,0,0,0,3,0,0],"split_type":[0,0,0,0,0,0,0,0,0,0,0,0,0,0,0,0,0,0,0,0,0,0,0,0,0,0,0],"sum_hessian":[4.8041736E2,2.6643393E2,2.1398343E2,2.0768265E2,5.8751278E1,5.7511063E1,1.240215E0,5.6262226E1,1.2488358E0,4.042277E1,1.5839457E1,1.7382207E0,3.868455E1,7.6218553E0,8.217601E0,1.9281423E0,5.6937127E0,2.444921E0,5.7726803E0,1.2190019E0,4.474711E0,1.2236798E0,1.2212411E0,1.9853563E0,2.4893546E0,1.2461792E0,1.2431753E0],"tree_param":{"num_deleted":"0","num_feature":"4","num_nodes":"27","size_leaf_vector":"1"}},{"base_weights":[-1.6444481E-3,-1.228528E0,1.526571E-2,-1.2990307E-2,-9.431964E-1,-1.0475823E0,-3.1855753E-1,-1.084609E0,1.8741031E-3,-9.142486E-3,-1.7274603E-2,-1.1059062E0,-3.2379548E-3,5.6153417E-1,-6.020266E-1,-9.512817E-1,-1.3847808E-2,1.2367594E-3,8.148184E-3,-1.0939936E-2,1.8353565E-3,-1.0212046E0,4.6929936E-3,-1.1261831E-2,-5.8181727E-1,5.6899604E-3,-9.836862E-1,-1.1777193E-2,-9.568297E-4],"categories":[],"categories_nodes":[],"categories_segments":[],"categories_sizes":[],"default_left":[0,0,0,0,0,0,0,0,0,0,0,0,0,0,0,0,0,0,0,0,0,0,0,0,0,0,0,0,0],"id":33,"left_children":[1,3,-1,-1,5,7,9,11,-1,-1,13,15,-1,17,19,21,-1,-1,-1,-1,-1,23,-1,-1,25,-1,27,-1,-1],"loss_changes":[9.0139075E2,4.1392517E0,0E0,0E0,3.3494072E0,2.3964462E0,1.6936796E0,3.9880753E-1,0E0,0E0,2.8240263E0,6.24279E-1,0E0,3.659749E-1,1.7993515E0,3.6737976E0,0E0,0E0,0E0,0E0,0E0,7.731514E-1,0E0,0E0,4.2783012E0,0E0,9.772911E-1,0E0,0E0],"parents":[2147483647,0,0,1,1,4,4,5,5,6,6,7,7,10,10,11,11,13,13,14,14,15,15,21,21,24,24,26,26],"right_children":[2,4,-1,-1,6,8,10,12,-1,-1,14,16,-1,18,20,22,-1,-1,-1,-1,-1,24,-1,-1,26,-1,28,-1,-1],"split_conditions":[9.9081135E-1,9.721982E-3,1.526571E-2,-1.2990307E-2,9.882295E-1,3.0595914E-3,2.4696326E-4,1.7517944E-3,1.8741031E-3,-9.142486E-3,4.8498542E-4,1.3461506E-3,-3.2379548E-3,3.44176E-4,8.443617E-4,1.3213493E-3,-1.3847808E-2,1.2367594E-3,8.148184E-3,-1.0939936E-2,1.8353565E-3,9.875103E-1,4.6929936E-3,-1.1261831E-2,4.563492E-4,5.6899604E-3,7.879603E-4,-1.1777193E-2,-9.568297E-4],"split_indices":[2,2,0,0,0,1,1,3,0,0,1,3,0,1,3,3,0,0,0,0,0,0,0,0,1,0,1,0,0],"split_type":[0,0,0,0,0,0,0,0,0,0,0,0,0,0,0,0,0,0,0,0,0,0,0,0,0,0,0,0,0],"sum_hessian":[4.7875623E2,2.6566827E2,2.1308797E2,2.1018166E2,5.548661E1,4.6961575E1,8.525036E0,4.571281E1,1.2487631E0,2.1800876E0,6.344948E0,4.40268E1,1.6860139E0,3.2086325E0,3.1363153E0,3.1160643E1,1.2866156E1,1.7212896E0,1.487343E0,1.6871156E0,1.4491999E0,2.9966774E1,1.1938676E0,2.292617E1,7.0406046E0,1.7146287E0,5.325976E0,4.1031594E0,1.2228163E0],"tree_param":{"num_deleted":"0","num_feature":"4","num_nodes":"29","size_leaf_vector":"1"}},{"base_weights":[-1.7037251E-3,-1.219961E0,1.5178567E-2,-1.3033258E-2,-9.7729814E-1,-6.819681E-1,-1.1783568E0,-7.6450247E-1,1.6093913E-1,-1.537344E-3,-1.2059897E0,-8.621711E-1,-2.2886397E-1,-4.6396744E-3,6.5871063E-3,-9.951219E-1,-1.3845567E0,-1.2410675E-2,-6.016441E-1,-5.334613E-1,2.573468E-3,-1.1738392E-2,-7.209317E-1,-4.1491236E-3,-1.4249169E-2,-1.669395E-1,-9.0130925E-1,-2.4350494E-4,-9.16478E-3,1.0726503E-3,-9.292248E-1,2.709635E-1,-8.985E-3,-3.2314193E-1,-1.1085932E-2,-1.0447122E0,-1.8603599E-3,8.469033E-3,-1.9646136E-1,-7.4861352E-3,3.408739E-3,-3.9689067E-1,-1.3056242E-2,-5.0032353E-3,1.2258078E-3,2.0889943E-3,-8.926147E-3],"categories":[],"categories_nodes":[],"categories_segments":[],"categories_sizes":[],"default_left":[0,0,0,0,0,0,0,0,0,0,0,0,0,0,0,0,0,0,0,0,0,0,0,0,0,0,0,0,0,0,0,0,0,0,0,0,0,0,0,0,0,0,0,0,0,0,0],"id":34,"left_children":[1,3,-1,-1,5,7,9,11,13,-1,15,17,19,-1,-1,21,23,-1,25,27,-1,-1,29,-1,-1,31,33,-1,-1,-1,35,37,-1,39,-1,41,-1,-1,43,-1,-1,45,-1,-1,-1,-1,-1],"loss_changes":[8.8687994E2,4.105316E0,0E0,0E0,3.4709473E0,2.3166895E0,9.8835754E-1,1.3142624E0,1.4373348E0,0E0,1.3668823E-1,1.6299706E0,9.988308E-1,0E0,0E0,2.3169136E-1,1.6109085E-1,0E0,1.9608364E0,7.385875E-1,0E0,0E0,2.0442023E0,0E0,0E0,2.7553363E0,7.643132E-1,0E0,0E0,0E0,5.875797E-1,1.6936684E0,0E0,1.3522959E0,0E0,7.7796173E-1,0E0,0E0,4.4361705E-1,0E0,0E0,1.2791193E0,0E0,0E0,0E0,0E0,0E0],"parents":[2147483647,0,0,1,1,4,4,5,5,6,6,7,7,8,8,10,10,11,11,12,12,15,15,16,16,18,18,19,19,22,22,25,25,26,26,30,30,31,31,33,33,35,35,38,38,41,41],"right_children":[2,4,-1,-1,6,8,10,12,14,-1,16,18,20,-1,-1,22,24,-1,26,28,-1,-1,30,-1,-1,32,34,-1,-1,-1,36,38,-1,40,-1,42,-1,-1,44,-1,-1,46,-1,-1,-1,-1,-1],"split_conditions":[9.9081135E-1,8.996314E-3,1.5178567E-2,-1.3033258E-2,9.396647E-4,8.9641666E-4,9.8221093E-1,8.7940163E-4,5.078244E-4,-1.537344E-3,1.0421342E-3,9.8774755E-1,6.870019E-4,-4.6396744E-3,6.5871063E-3,7.879603E-4,9.137085E-3,-1.2410675E-2,9.8913914E-1,5.0427276E-4,2.573468E-3,-1.1738392E-2,1.2529319E-3,-4.1491236E-3,-1.4249169E-2,5.078244E-4,5.849049E-5,-2.4350494E-4,-9.16478E-3,1.0726503E-3,1.0202129E-3,1.0687495E-2,-8.985E-3,2.7563688E-5,-1.1085932E-2,1.3461506E-3,-1.8603599E-3,8.469033E-3,5.1356235E-4,-7.4861352E-3,3.408739E-3,1.0776073E-2,-1.3056242E-2,-5.0032353E-3,1.2258078E-3,2.0889943E-3,-8.926147E-3],"split_indices":[2,2,0,0,3,3,0,1,1,0,1,0,3,0,0,1,2,0,0,3,0,0,3,0,0,1,3,0,0,0,1,2,0,3,0,3,0,0,3,0,0,2,0,0,0,0,0],"split_type":[0,0,0,0,0,0,0,0,0,0,0,0,0,0,0,0,0,0,0,0,0,0,0,0,0,0,0,0,0,0,0,0,0,0,0,0,0,0,0,0,0,0,0,0,0,0,0],"sum_hessian":[4.770795E2,2.6490103E2,2.1217848E2,1.9391302E2,7.098799E1,3.0532068E1,4.045592E1,2.7893824E1,2.638243E0,1.2347634E0,3.9221157E1,2.3076439E1,4.8173857E0,1.1998508E0,1.4383922E0,2.099784E1,1.8223316E1,7.8688006E0,1.5207638E1,2.9021127E0,1.915273E0,1.0725705E1,1.0272136E1,1.1789769E0,1.704434E1,6.840973E0,8.366666E0,1.7025874E0,1.1995254E0,2.1617603E0,8.110375E0,4.673239E0,2.1677337E0,2.8833125E0,5.4833527E0,6.668424E0,1.4419519E0,1.7298934E0,2.9433458E0,1.679659E0,1.2036535E0,2.6384795E0,4.0299444E0,1.2165111E0,1.7268347E0,1.4478092E0,1.1906701E0],"tree_param":{"num_deleted":"0","num_feature":"4","num_nodes":"47","size_leaf_vector":"1"}},{"base_weights":[-1.8709636E-3,-1.2116685E0,1.5093161E-2,-1.2842082E-2,-9.388403E-1,-9.809092E-1,5.7245335E-3,-1.0097971E0,1.8648527E-3,-1.136141E0,-6.400242E-1,-4.306644E-3,-1.1562784E-2,-2.164993E-1,-9.6738946E-1,-1.093286E-2,1.9841857E-1,-3.989791E-1,-1.1138049E-2,9.415271E-3,-1.3872558E-1,-8.8711915E-4,-5.2995062E-3,-5.5455044E-3,2.5682908E-1,-1.9204784E-3,5.9168125E-3],"categories":[],"categories_nodes":[],"categories_segments":[],"categories_sizes":[],"default_left":[0,0,0,0,0,0,0,0,0,0,0,0,0,0,0,0,0,0,0,0,0,0,0,0,0,0,0],"id":35,"left_children":[1,3,-1,-1,5,7,-1,9,-1,11,13,-1,-1,15,17,-1,19,21,-1,-1,23,-1,-1,-1,25,-1,-1],"loss_changes":[8.727752E2,4.041565E0,0E0,0E0,4.3384514E0,2.1498566E0,0E0,1.9319077E0,0E0,8.6372375E-2,2.1177273E0,0E0,0E0,3.3477366E0,3.1951332E-1,0E0,1.8061849E0,9.2702866E-2,0E0,0E0,1.0425099E0,0E0,0E0,0E0,6.378958E-1,0E0,0E0],"parents":[2147483647,0,0,1,1,4,4,5,5,7,7,9,9,10,10,13,13,14,14,16,16,17,17,20,20,24,24],"right_children":[2,4,-1,-1,6,8,-1,10,-1,12,14,-1,-1,16,18,-1,20,22,-1,-1,24,-1,-1,-1,26,-1,-1],"split_conditions":[9.9081135E-1,9.609969E-3,1.5093161E-2,-1.2842082E-2,9.8973036E-1,3.0595914E-3,5.7245335E-3,9.875981E-1,1.8648527E-3,9.752191E-1,5.2570354E-4,-4.306644E-3,-1.1562784E-2,2.4696326E-4,9.87931E-1,-1.093286E-2,3.2330488E-4,1.2529319E-3,-1.1138049E-2,9.415271E-3,4.2411624E-4,-8.8711915E-4,-5.2995062E-3,-5.5455044E-3,7.6657097E-4,-1.9204784E-3,5.9168125E-3],"split_indices":[2,2,0,0,0,1,0,0,0,0,1,0,0,1,0,0,1,3,0,0,1,0,0,0,3,0,0],"split_type":[0,0,0,0,0,0,0,0,0,0,0,0,0,0,0,0,0,0,0,0,0,0,0,0,0,0,0],"sum_hessian":[4.7538766E2,2.6413205E2,2.1125563E2,2.0572632E2,5.840572E1,5.716539E1,1.2403297E0,5.59167E1,1.248693E0,4.013191E1,1.5784788E1,1.7350254E0,3.8396885E1,7.6059804E0,8.178808E0,1.9179997E0,5.6879807E0,2.4382143E0,5.7405934E0,1.2157216E0,4.4722595E0,1.2216064E0,1.2166079E0,1.9843082E0,2.487951E0,1.2452006E0,1.2427503E0],"tree_param":{"num_deleted":"0","num_feature":"4","num_nodes":"27","size_leaf_vector":"1"}},{"base_weights":[-1.9104021E-3,-1.2033578E0,1.500944E-2,-1.2582574E-2,-8.530387E-1,3.6349692E-3,-9.174938E-1,-1.027577E0,-2.7644792E-1,-1.0839305E0,1.8545609E-3,2.8957468E-1,-9.265577E-3,-4.280418E-3,-1.1088829E-2,-6.068964E-3,9.350858E-3],"categories":[],"categories_nodes":[],"categories_segments":[],"categories_sizes":[],"default_left":[0,0,0,0,0,0,0,0,0,0,0,0,0,0,0,0,0],"id":36,"left_children":[1,3,-1,-1,5,-1,7,9,11,13,-1,15,-1,-1,-1,-1,-1],"loss_changes":[8.5883813E2,4.0104065E0,0E0,0E0,3.3850803E0,0E0,2.3440971E0,2.3486137E0,2.780206E0,1.9081116E-2,0E0,3.120068E0,0E0,0E0,0E0,0E0,0E0],"parents":[2147483647,0,0,1,1,4,4,6,6,7,7,8,8,9,9,11,11],"right_children":[2,4,-1,-1,6,-1,8,10,12,14,-1,16,-1,-1,-1,-1,-1],"split_conditions":[9.9081135E-1,1.0400066E-2,1.500944E-2,-1.2582574E-2,1.0490781E-2,3.6349692E-3,9.875103E-1,3.0595914E-3,4.563492E-4,9.752191E-1,1.8545609E-3,5.1356235E-4,-9.265577E-3,-4.280418E-3,-1.1088829E-2,-6.068964E-3,9.350858E-3],"split_indices":[2,2,0,0,2,0,0,1,1,0,0,3,0,0,0,0,0],"split_type":[0,0,0,0,0,0,0,0,0,0,0,0,0,0,0,0,0],"sum_hessian":[4.7365207E2,2.6333215E2,2.1031993E2,2.2541492E2,3.7917233E1,1.6744199E0,3.6242813E1,3.0416574E1,5.8262396E0,2.9167957E1,1.2486167E0,3.4110024E0,2.4152372E0,1.7343299E0,2.7433628E1,1.4529705E0,1.9580319E0],"tree_param":{"num_deleted":"0","num_feature":"4","num_nodes":"17","size_leaf_vector":"1"}},{"base_weights":[-1.922094E-3,-1.1950516E0,1.4927351E-2,-1.2776984E-2,-9.5530456E-1,-6.6285443E-1,-1.1550305E0,-7.4552345E-1,1.7468178E-1,-1.4951321E-3,-1.1823447E0,-8.429804E-1,-2.1442716E-1,-4.5267073E-3,6.6851205E-3,-9.722793E-1,-1.3611497E0,-1.2195064E-2,-5.8513945E-1,-5.2107686E-1,2.6966583E-3,-1.1519527E-2,-6.9881135E-1,-4.005348E-3,-1.40160285E-2,-1.5949492E-1,-8.7971103E-1,-1.614293E-4,-9.04633E-3,1.2209858E-3,-9.0743905E-1,2.7151334E-1,-8.823007E-3,-3.0795193E-1,-1.0867124E-2,-1.0233766E0,-1.7198591E-3,8.445609E-3,-1.9450201E-1,-7.3555945E-3,3.5179558E-3,-3.7988007E-1,-1.2854246E-2,-4.9035773E-3,1.1720716E-3,2.215195E-3,-8.788988E-3],"categories":[],"categories_nodes":[],"categories_segments":[],"categories_sizes":[],"default_left":[0,0,0,0,0,0,0,0,0,0,0,0,0,0,0,0,0,0,0,0,0,0,0,0,0,0,0,0,0,0,0,0,0,0,0,0,0,0,0,0,0,0,0,0,0,0,0],"id":37,"left_children":[1,3,-1,-1,5,7,9,11,13,-1,15,17,19,-1,-1,21,23,-1,25,27,-1,-1,29,-1,-1,31,33,-1,-1,-1,35,37,-1,39,-1,41,-1,-1,43,-1,-1,45,-1,-1,-1,-1,-1],"loss_changes":[8.451292E2,4.0011597E0,0E0,0E0,3.4119415E0,2.3022575E0,9.534416E-1,1.3068943E0,1.4267169E0,0E0,1.7593384E-1,1.6110287E0,1.0011475E0,0E0,0E0,2.688408E-1,1.7940521E-1,0E0,1.8826756E0,7.3883295E-1,0E0,0E0,2.0302858E0,0E0,0E0,2.6759267E0,7.6769686E-1,0E0,0E0,0E0,5.9609795E-1,1.6767924E0,0E0,1.3508736E0,0E0,7.966461E-1,0E0,0E0,4.2049605E-1,0E0,0E0,1.2824762E0,0E0,0E0,0E0,0E0,0E0],"parents":[2147483647,0,0,1,1,4,4,5,5,6,6,7,7,8,8,10,10,11,11,12,12,15,15,16,16,18,18,19,19,22,22,25,25,26,26,30,30,31,31,33,33,35,35,38,38,41,41],"right_children":[2,4,-1,-1,6,8,10,12,14,-1,16,18,20,-1,-1,22,24,-1,26,28,-1,-1,30,-1,-1,32,34,-1,-1,-1,36,38,-1,40,-1,42,-1,-1,44,-1,-1,46,-1,-1,-1,-1,-1],"split_conditions":[9.9081135E-1,8.996314E-3,1.4927351E-2,-1.2776984E-2,9.396647E-4,8.9641666E-4,9.8221093E-1,8.7940163E-4,5.078244E-4,-1.4951321E-3,1.0421342E-3,9.8774755E-1,6.870019E-4,-4.5267073E-3,6.6851205E-3,7.879603E-4,9.137085E-3,-1.2195064E-2,9.8913914E-1,5.0427276E-4,2.6966583E-3,-1.1519527E-2,1.2529319E-3,-4.005348E-3,-1.40160285E-2,5.078244E-4,5.849049E-5,-1.614293E-4,-9.04633E-3,1.2209858E-3,1.0202129E-3,1.0687495E-2,-8.823007E-3,6.6550565E-5,-1.0867124E-2,1.3461506E-3,-1.7198591E-3,8.445609E-3,5.1356235E-4,-7.3555945E-3,3.5179558E-3,1.0776073E-2,-1.2854246E-2,-4.9035773E-3,1.1720716E-3,2.215195E-3,-8.788988E-3],"split_indices":[2,2,0,0,3,3,0,1,1,0,1,0,3,0,0,1,2,0,0,3,0,0,3,0,0,1,3,0,0,0,1,2,0,1,0,3,0,0,3,0,0,2,0,0,0,0,0],"split_type":[0,0,0,0,0,0,0,0,0,0,0,0,0,0,0,0,0,0,0,0,0,0,0,0,0,0,0,0,0,0,0,0,0,0,0,0,0,0,0,0,0,0,0,0,0,0,0],"sum_hessian":[4.7190756E2,2.6253558E2,2.0937198E2,1.9201411E2,7.0521484E1,3.0370323E1,4.015116E1,2.7741917E1,2.6284065E0,1.2330441E0,3.8918118E1,2.2944353E1,4.797565E0,1.194405E0,1.4340016E0,2.0854858E1,1.806326E1,7.809877E0,1.5134476E1,2.8903003E0,1.9072647E0,1.0647118E1,1.0207741E1,1.1704543E0,1.6892805E1,6.820526E0,8.31395E0,1.6975896E0,1.1927106E0,2.1525652E0,8.055176E0,4.6638436E0,2.1566825E0,2.8711684E0,5.442781E0,6.6200876E0,1.4350878E0,1.7273997E0,2.936444E0,1.6723464E0,1.198822E0,2.624619E0,3.9954686E0,1.2124927E0,1.7239515E0,1.4423908E0,1.1822282E0],"tree_param":{"num_deleted":"0","num_feature":"4","num_nodes":"47","size_leaf_vector":"1"}},{"base_weights":[-2.0842613E-3,-1.1871024E0,1.4846855E-2,-1.269323E-2,-9.4888943E-1,-6.582314E-1,-1.1476098E0,-7.404737E-1,1.7348456E-1,-1.4869567E-3,-1.1748078E0,-8.372923E-1,-2.1345486E-1,-4.5043263E-3,6.6402815E-3,-9.658829E-1,-1.3528004E0,-1.21171875E-2,-5.811525E-1,-5.185384E-1,2.6780455E-3,-1.1441792E-2,-6.9450945E-1,-3.985938E-3,-1.3930129E-2,-1.58527E-1,-8.7384254E-1,-1.6041576E-4,-9.006358E-3,1.2124508E-3,-9.022085E-1,2.697224E-1,-8.7711355E-3,-3.0597734E-1,-1.0797025E-2,-1.017649E0,-1.7100581E-3,8.3947E-3,-1.9355918E-1,-7.314659E-3,3.4980786E-3,-3.7809294E-1,-1.2784081E-2,-4.8788968E-3,1.1646979E-3,2.2015956E-3,-8.751199E-3],"categories":[],"categories_nodes":[],"categories_segments":[],"categories_sizes":[],"default_left":[0,0,0,0,0,0,0,0,0,0,0,0,0,0,0,0,0,0,0,0,0,0,0,0,0,0,0,0,0,0,0,0,0,0,0,0,0,0,0,0,0,0,0,0,0,0,0],"id":38,"left_children":[1,3,-1,-1,5,7,9,11,13,-1,15,17,19,-1,-1,21,23,-1,25,27,-1,-1,29,-1,-1,31,33,-1,-1,-1,35,37,-1,39,-1,41,-1,-1,43,-1,-1,45,-1,-1,-1,-1,-1],"loss_changes":[8.3185315E2,3.9414673E0,0E0,0E0,3.3673096E0,2.2714233E0,9.4052124E-1,1.285676E0,1.4098787E0,0E0,1.7396164E-1,1.5882607E0,9.899033E-1,0E0,0E0,2.607479E-1,1.7391205E-1,0E0,1.8548999E0,7.3206437E-1,0E0,0E0,2.0058713E0,0E0,0E0,2.641702E0,7.567706E-1,0E0,0E0,0E0,5.890579E-1,1.6569705E0,0E0,1.3356473E0,0E0,7.85017E-1,0E0,0E0,4.159292E-1,0E0,0E0,1.2698824E0,0E0,0E0,0E0,0E0,0E0],"parents":[2147483647,0,0,1,1,4,4,5,5,6,6,7,7,8,8,10,10,11,11,12,12,15,15,16,16,18,18,19,19,22,22,25,25,26,26,30,30,31,31,33,33,35,35,38,38,41,41],"right_children":[2,4,-1,-1,6,8,10,12,14,-1,16,18,20,-1,-1,22,24,-1,26,28,-1,-1,30,-1,-1,32,34,-1,-1,-1,36,38,-1,40,-1,42,-1,-1,44,-1,-1,46,-1,-1,-1,-1,-1],"split_conditions":[9.9081135E-1,8.996314E-3,1.4846855E-2,-1.269323E-2,9.396647E-4,8.9641666E-4,9.8221093E-1,8.7940163E-4,5.078244E-4,-1.4869567E-3,1.0421342E-3,9.8774755E-1,6.870019E-4,-4.5043263E-3,6.6402815E-3,7.879603E-4,9.137085E-3,-1.21171875E-2,9.8913914E-1,5.0427276E-4,2.6780455E-3,-1.1441792E-2,1.2529319E-3,-3.985938E-3,-1.3930129E-2,5.078244E-4,5.849049E-5,-1.6041576E-4,-9.006358E-3,1.2124508E-3,1.0202129E-3,1.0687495E-2,-8.7711355E-3,2.7563688E-5,-1.0797025E-2,1.3461506E-3,-1.7100581E-3,8.3947E-3,5.1356235E-4,-7.314659E-3,3.4980786E-3,1.0776073E-2,-1.2784081E-2,-4.8788968E-3,1.1646979E-3,2.2015956E-3,-8.751199E-3],"split_indices":[2,2,0,0,3,3,0,1,1,0,1,0,3,0,0,1,2,0,0,3,0,0,3,0,0,1,3,0,0,0,1,2,0,3,0,3,0,0,3,0,0,2,0,0,0,0,0],"split_type":[0,0,0,0,0,0,0,0,0,0,0,0,0,0,0,0,0,0,0,0,0,0,0,0,0,0,0,0,0,0,0,0,0,0,0,0,0,0,0,0,0,0,0,0,0,0,0],"sum_hessian":[4.701474E2,2.6173508E2,2.0841232E2,1.9135817E2,7.037691E1,3.0328836E1,4.0048073E1,2.7699535E1,2.6293008E0,1.2329241E0,3.8815147E1,2.2903246E1,4.7962894E0,1.1933103E0,1.4359905E0,2.081241E1,1.8002737E1,7.788005E0,1.511524E1,2.8880281E0,1.9082614E0,1.0619193E1,1.0193217E1,1.1692678E0,1.683347E1,6.81559E0,8.29965E0,1.6975547E0,1.1904733E0,2.1530783E0,8.040139E0,4.661918E0,2.1536717E0,2.8697565E0,5.429894E0,6.6055274E0,1.4346123E0,1.7265655E0,2.9353526E0,1.6704956E0,1.1992608E0,2.622751E0,3.9827762E0,1.2115036E0,1.723849E0,1.4429609E0,1.1797901E0],"tree_param":{"num_deleted":"0","num_feature":"4","num_nodes":"47","size_leaf_vector":"1"}},{"base_weights":[-2.245143E-3,-1.1792644E0,1.4767902E-2,-1.2336226E-2,-8.3369E-1,3.7059851E-3,-8.979339E-1,-1.0065793E0,-2.680876E-1,-1.0623785E0,1.8457005E-3,2.9211813E-1,-9.138438E-3,-4.1704443E-3,-1.0871768E-2,-5.9726504E-3,9.299957E-3],"categories":[],"categories_nodes":[],"categories_segments":[],"categories_sizes":[],"default_left":[0,0,0,0,0,0,0,0,0,0,0,0,0,0,0,0,0],"id":39,"left_children":[1,3,-1,-1,5,-1,7,9,11,13,-1,15,-1,-1,-1,-1,-1],"loss_changes":[8.188387E2,3.8917236E0,0E0,0E0,3.3257523E0,0E0,2.263279E0,2.2703876E0,2.730155E0,2.6058197E-2,0E0,3.0538044E0,0E0,0E0,0E0,0E0,0E0],"parents":[2147483647,0,0,1,1,4,4,6,6,7,7,8,8,9,9,11,11],"right_children":[2,4,-1,-1,6,-1,8,10,12,14,-1,16,-1,-1,-1,-1,-1],"split_conditions":[9.9081135E-1,1.0400066E-2,1.4767902E-2,-1.2336226E-2,1.0490781E-2,3.7059851E-3,9.875103E-1,3.0595914E-3,4.563492E-4,9.752191E-1,1.8457005E-3,5.1356235E-4,-9.138438E-3,-4.1704443E-3,-1.0871768E-2,-5.9726504E-3,9.299957E-3],"split_indices":[2,2,0,0,2,0,0,1,1,0,0,3,0,0,0,0,0],"split_type":[0,0,0,0,0,0,0,0,0,0,0,0,0,0,0,0,0],"sum_hessian":[4.6836594E2,2.6092444E2,2.0744151E2,2.2323952E2,3.7684914E1,1.6670225E0,3.601789E1,3.0208876E1,5.809016E0,2.8960339E1,1.248538E0,3.4037943E0,2.405222E0,1.7310143E0,2.7229324E1,1.4482247E0,1.9555697E0],"tree_param":{"num_deleted":"0","num_feature":"4","num_nodes":"17","size_leaf_vector":"1"}},{"base_weights":[-2.253998E-3,-1.171285E0,1.469045E-2,-1.2531087E-2,-9.3483156E-1,-6.4601994E-1,-1.132776E0,-7.280499E-1,1.7936029E-1,-1.462689E-3,-1.1597707E0,-8.243315E-1,-2.0589063E-1,-4.445349E-3,6.6700005E-3,-9.1198635E-1,-1.30079305E-2,-1.1977771E-2,-5.697533E-1,-5.111261E-1,2.7276084E-3,-1.1299734E-2,-4.3161237E-1,-1.5341693E-1,-8.5889983E-1,-1.2086044E-4,-8.926327E-3,2.142295E-1,-1.1412799E-2,2.6962045E-1,-8.651635E-3,-2.9524663E-1,-1.0649081E-2,6.397726E-3,-1.8385319E-3,8.376208E-3,-1.9266151E-1,-7.2212117E-3,3.5731262E-3,-4.8243823E-3,1.1328358E-3],"categories":[],"categories_nodes":[],"categories_segments":[],"categories_sizes":[],"default_left":[0,0,0,0,0,0,0,0,0,0,0,0,0,0,0,0,0,0,0,0,0,0,0,0,0,0,0,0,0,0,0,0,0,0,0,0,0,0,0,0,0],"id":40,"left_children":[1,3,-1,-1,5,7,9,11,13,-1,15,17,19,-1,-1,21,-1,-1,23,25,-1,-1,27,29,31,-1,-1,33,-1,35,-1,37,-1,-1,-1,-1,39,-1,-1,-1,-1],"loss_changes":[8.059205E2,3.8802185E0,0E0,0E0,3.330696E0,2.244707E0,9.178505E-1,1.2681236E0,1.3993881E0,0E0,1.9758987E-1,1.5816364E0,9.846844E-1,0E0,0E0,1.3668346E0,0E0,0E0,1.8025541E0,7.2803867E-1,0E0,0E0,3.5198169E0,2.5827465E0,7.61425E-1,0E0,0E0,8.9403766E-1,0E0,1.6466622E0,0E0,1.3342445E0,0E0,0E0,0E0,0E0,4.0320307E-1,0E0,0E0,0E0,0E0],"parents":[2147483647,0,0,1,1,4,4,5,5,6,6,7,7,8,8,10,10,11,11,12,12,15,15,18,18,19,19,22,22,23,23,24,24,27,27,29,29,31,31,36,36],"right_children":[2,4,-1,-1,6,8,10,12,14,-1,16,18,20,-1,-1,22,-1,-1,24,26,-1,-1,28,30,32,-1,-1,34,-1,36,-1,38,-1,-1,-1,-1,40,-1,-1,-1,-1],"split_conditions":[9.9081135E-1,8.996314E-3,1.469045E-2,-1.2531087E-2,9.396647E-4,8.9641666E-4,9.8221093E-1,8.7940163E-4,5.078244E-4,-1.462689E-3,9.643718E-4,9.8774755E-1,6.870019E-4,-4.445349E-3,6.6700005E-3,7.879603E-4,-1.30079305E-2,-1.1977771E-2,9.8913914E-1,5.0427276E-4,2.7276084E-3,-1.1299734E-2,1.3461506E-3,5.078244E-4,5.849049E-5,-1.2086044E-4,-8.926327E-3,1.2529319E-3,-1.1412799E-2,1.0687495E-2,-8.651635E-3,6.6550565E-5,-1.0649081E-2,6.397726E-3,-1.8385319E-3,8.376208E-3,5.1356235E-4,-7.2212117E-3,3.5731262E-3,-4.8243823E-3,1.1328358E-3],"split_indices":[2,2,0,0,3,3,0,1,1,0,1,0,3,0,0,1,0,0,0,3,0,0,3,1,3,0,0,3,0,2,0,1,0,0,0,0,3,0,0,0,0],"split_type":[0,0,0,0,0,0,0,0,0,0,0,0,0,0,0,0,0,0,0,0,0,0,0,0,0,0,0,0,0,0,0,0,0,0,0,0,0,0,0,0,0],"sum_hessian":[4.665596E2,2.6009958E2,2.0646004E2,1.9003806E2,7.006151E1,3.0225103E1,3.9836407E1,2.7600012E1,2.6250901E0,1.2320004E0,3.860441E1,2.2814516E1,4.7854958E0,1.1904289E0,1.4346614E0,1.6710339E1,2.189407E1,7.746329E0,1.5068188E1,2.8806577E0,1.9048383E0,1.0564179E1,6.146159E0,6.80311E0,8.265078E0,1.6950636E0,1.1855941E0,3.5832782E0,2.5628805E0,4.656584E0,2.1465266E0,2.8635044E0,5.4015727E0,1.4384582E0,2.1448202E0,1.7250764E0,2.931507E0,1.6666555E0,1.1968488E0,1.2092676E0,1.7222395E0],"tree_param":{"num_deleted":"0","num_feature":"4","num_nodes":"41","size_leaf_vector":"1"}},{"base_weights":[-2.3748588E-3,-1.1636045E0,1.4614456E-2,-1.2349615E-2,-8.973648E-1,-9.397727E-1,5.88526E-3,-9.680055E-1,1.836011E-3,-1.0487661E0,-4.5673737E-1,-4.674909E-1,-1.0847433E-2,-4.96015E-2,-1.1696547E-2,-8.283064E-3,2.9502953E-3,5.3304464E-1,-5.921404E-1,-2.6771938E-3,1.1097378E-2,-1.03257615E-2,2.916183E-4],"categories":[],"categories_nodes":[],"categories_segments":[],"categories_sizes":[],"default_left":[0,0,0,0,0,0,0,0,0,0,0,0,0,0,0,0,0,0,0,0,0,0,0],"id":41,"left_children":[1,3,-1,-1,5,7,-1,9,-1,11,13,15,-1,17,-1,-1,-1,19,21,-1,-1,-1,-1],"loss_changes":[7.9337335E2,3.8363953E0,0E0,0E0,4.250107E0,1.9990883E0,0E0,1.8406372E0,0E0,4.9133682E-1,2.6805408E0,1.4935067E0,0E0,2.5441084E0,0E0,0E0,0E0,2.1098628E0,1.1586838E0,0E0,0E0,0E0,0E0],"parents":[2147483647,0,0,1,1,4,4,5,5,7,7,9,9,10,10,11,11,13,13,17,17,18,18],"right_children":[2,4,-1,-1,6,8,-1,10,-1,12,14,16,-1,18,-1,-1,-1,20,22,-1,-1,-1,-1],"split_conditions":[9.9081135E-1,9.609969E-3,1.4614456E-2,-1.2349615E-2,9.8973036E-1,3.0595914E-3,5.88526E-3,9.882295E-1,1.836011E-3,3.2330488E-4,9.8913914E-1,2.427118E-4,-1.0847433E-2,7.838857E-4,-1.1696547E-2,-8.283064E-3,2.9502953E-3,5.1356235E-4,8.443617E-4,-2.6771938E-3,1.1097378E-2,-1.03257615E-2,2.916183E-4],"split_indices":[2,2,0,0,0,1,0,0,0,1,0,1,0,3,0,0,0,3,3,0,0,0,0],"split_type":[0,0,0,0,0,0,0,0,0,0,0,0,0,0,0,0,0,0,0,0,0,0,0],"sum_hessian":[4.64736E2,2.5926755E2,2.0546843E2,2.015973E2,5.7670235E1,5.642731E1,1.2429242E0,5.5178856E1,1.2484546E0,4.6743824E1,8.43503E0,3.5401642E0,4.320366E1,6.0497108E0,2.385319E0,2.3445005E0,1.1956638E0,2.9254723E0,3.1242383E0,1.4491004E0,1.4763718E0,1.440866E0,1.6833723E0],"tree_param":{"num_deleted":"0","num_feature":"4","num_nodes":"23","size_leaf_vector":"1"}},{"base_weights":[-2.3979745E-3,-1.1558907E0,1.4539882E-2,-1.2372355E-2,-9.2142564E-1,-6.353664E-1,-1.1179081E0,-7.17287E-1,1.8495002E-1,-1.423956E-3,-1.1447753E0,-8.257609E-1,-2.4160986E-1,-4.3807095E-3,6.6872975E-3,-9.764521E-1,-1.3823809E-2,-1.18487105E-2,-5.638029E-1,5.372739E-3,-5.0179714E-1,-1.12010725E-2,-7.012046E-1,-1.1055667E-2,-2.2016469E-1,-9.970196E-3,-3.764671E-2,-8.3340895E-1,6.1756774E-4,-8.721534E-3,5.323145E-2,4.9116653E-3,-4.4900645E-3,-1.1226919E-2,-3.7965387E-1,1.0948489E-2,-3.799743E-1,3.1153532E-3,-6.9806015E-1,-4.768986E-2,-9.408137E-3,-2.3704532E-3,-9.152857E-3,-2.992501E-1,3.4687077E-3,1.0037886E-3,-6.0764966E-3],"categories":[],"categories_nodes":[],"categories_segments":[],"categories_sizes":[],"default_left":[0,0,0,0,0,0,0,0,0,0,0,0,0,0,0,0,0,0,0,0,0,0,0,0,0,0,0,0,0,0,0,0,0,0,0,0,0,0,0,0,0,0,0,0,0,0,0],"id":42,"left_children":[1,3,-1,-1,5,7,9,11,13,-1,15,17,19,-1,-1,21,-1,-1,23,-1,25,-1,27,-1,29,-1,31,33,-1,-1,35,-1,-1,-1,37,-1,39,-1,41,43,-1,-1,-1,45,-1,-1,-1],"loss_changes":[7.809762E2,3.8077087E0,0E0,0E0,3.2655563E0,2.2239332E0,9.015541E-1,1.2710028E0,1.3842158E0,0E0,2.2542953E-1,1.4761772E0,1.628561E0,0E0,0E0,2.6082993E-1,0E0,0E0,2.5653958E0,0E0,1.2367226E0,0E0,1.2364469E0,0E0,1.9145534E0,0E0,1.0690993E0,8.971524E-1,0E0,0E0,4.1732097E0,0E0,0E0,0E0,1.4138379E0,0E0,1.1893958E0,0E0,1.8663931E-1,6.211587E-1,0E0,0E0,0E0,5.194484E-1,0E0,0E0,0E0],"parents":[2147483647,0,0,1,1,4,4,5,5,6,6,7,7,8,8,10,10,11,11,12,12,15,15,18,18,20,20,22,22,24,24,26,26,27,27,30,30,34,34,36,36,38,38,39,39,43,43],"right_children":[2,4,-1,-1,6,8,10,12,14,-1,16,18,20,-1,-1,22,-1,-1,24,-1,26,-1,28,-1,30,-1,32,34,-1,-1,36,-1,-1,-1,38,-1,40,-1,42,44,-1,-1,-1,46,-1,-1,-1],"split_conditions":[9.9081135E-1,8.996314E-3,1.4539882E-2,-1.2372355E-2,9.396647E-4,8.9641666E-4,9.8221093E-1,7.3126884E-4,5.078244E-4,-1.423956E-3,1.13161E-3,9.8774755E-1,9.234731E-3,-4.3807095E-3,6.6872975E-3,1.0747756E-2,-1.3823809E-2,-1.18487105E-2,9.609969E-3,5.372739E-3,1.2594834E-2,-1.12010725E-2,9.8708016E-1,-1.1055667E-2,2.4696326E-4,-9.970196E-3,2.2002198E-2,7.69717E-4,6.1756774E-4,-8.721534E-3,3.2330488E-4,4.9116653E-3,-4.4900645E-3,-1.1226919E-2,9.866216E-1,1.0948489E-2,5.2570354E-4,3.1153532E-3,9.643718E-4,7.5506285E-4,-9.408137E-3,-2.3704532E-3,-9.152857E-3,4.1642206E-4,3.4687077E-3,1.0037886E-3,-6.0764966E-3],"split_indices":[2,2,0,0,3,3,0,1,1,0,1,0,2,0,0,2,0,0,2,0,2,0,0,0,1,0,2,1,0,0,1,0,0,0,0,0,1,0,1,3,0,0,0,1,0,0,0],"split_type":[0,0,0,0,0,0,0,0,0,0,0,0,0,0,0,0,0,0,0,0,0,0,0,0,0,0,0,0,0,0,0,0,0,0,0,0,0,0,0,0,0,0,0,0,0,0,0],"sum_hessian":[4.628855E2,2.584183E2,2.0446718E2,1.8868094E2,6.973737E1,3.0119715E1,3.9617657E1,2.7499123E1,2.6205933E0,1.2307495E0,3.8386906E1,2.179337E1,5.705752E0,1.1867527E0,1.4338406E0,2.5460135E1,1.2926772E1,7.706134E0,1.4087236E1,1.1620741E0,4.543678E0,1.4712195E1,1.0747938E1,4.6069293E0,9.480308E0,1.642824E0,2.9008536E0,9.081909E0,1.666029E0,2.1538305E0,7.3264766E0,1.1843433E0,1.7165104E0,4.6458273E0,4.436082E0,1.7034099E0,5.623067E0,1.4058573E0,3.0302246E0,4.2123685E0,1.4106984E0,1.640293E0,1.3899316E0,2.7198398E0,1.4925286E0,1.4784973E0,1.2413427E0],"tree_param":{"num_deleted":"0","num_feature":"4","num_nodes":"47","size_leaf_vector":"1"}},{"base_weights":[-2.5451472E-3,-1.148459E0,1.446669E-2,-1.2294301E-2,-9.153746E-1,-6.3108045E-1,-1.1108384E0,-7.126126E-1,1.8369119E-1,-1.4161798E-3,-1.1375993E0,-8.2061416E-1,-2.3988226E-1,-4.3591894E-3,6.6424417E-3,-9.699934E-1,-1.3745003E-2,-1.1775519E-2,-5.60385E-1,5.339779E-3,-4.9880847E-1,-1.1125747E-2,-6.968371E-1,-1.0993143E-2,-2.1900804E-1,-9.923616E-3,-3.7156478E-2,-8.284574E-1,6.136643E-4,-8.670574E-3,5.273398E-2,4.8820544E-3,-4.462695E-3,-1.1162345E-2,-3.7764016E-1,1.0891293E-2,-3.7805694E-1,3.0957381E-3,-6.947084E-1,-4.752583E-2,-9.365825E-3,-2.3565984E-3,-9.112916E-3,-3.4400418E-3,2.8774084E-3],"categories":[],"categories_nodes":[],"categories_segments":[],"categories_sizes":[],"default_left":[0,0,0,0,0,0,0,0,0,0,0,0,0,0,0,0,0,0,0,0,0,0,0,0,0,0,0,0,0,0,0,0,0,0,0,0,0,0,0,0,0,0,0,0,0],"id":43,"left_children":[1,3,-1,-1,5,7,9,11,13,-1,15,17,19,-1,-1,21,-1,-1,23,-1,25,-1,27,-1,29,-1,31,33,-1,-1,35,-1,-1,-1,37,-1,39,-1,41,43,-1,-1,-1,-1,-1],"loss_changes":[7.6893787E2,3.7546387E0,0E0,0E0,3.2210617E0,2.1949759E0,8.895912E-1,1.2556753E0,1.3678658E0,0E0,2.2632599E-1,1.452879E0,1.6096582E0,0E0,0E0,2.5297356E-1,0E0,0E0,2.53051E0,0E0,1.225488E0,0E0,1.2215133E0,0E0,1.8895978E0,0E0,1.056446E0,8.841901E-1,0E0,0E0,4.1262736E0,0E0,0E0,0E0,1.3988216E0,0E0,1.1774706E0,0E0,1.8549752E-1,6.170361E-1,0E0,0E0,0E0,0E0,0E0],"parents":[2147483647,0,0,1,1,4,4,5,5,6,6,7,7,8,8,10,10,11,11,12,12,15,15,18,18,20,20,22,22,24,24,26,26,27,27,30,30,34,34,36,36,38,38,39,39],"right_children":[2,4,-1,-1,6,8,10,12,14,-1,16,18,20,-1,-1,22,-1,-1,24,-1,26,-1,28,-1,30,-1,32,34,-1,-1,36,-1,-1,-1,38,-1,40,-1,42,44,-1,-1,-1,-1,-1],"split_conditions":[9.9081135E-1,8.996314E-3,1.446669E-2,-1.2294301E-2,9.396647E-4,8.9641666E-4,9.8221093E-1,7.3126884E-4,5.078244E-4,-1.4161798E-3,1.13161E-3,9.8774755E-1,9.234731E-3,-4.3591894E-3,6.6424417E-3,1.0747756E-2,-1.3745003E-2,-1.1775519E-2,9.609969E-3,5.339779E-3,1.2594834E-2,-1.1125747E-2,9.8708016E-1,-1.0993143E-2,2.4696326E-4,-9.923616E-3,2.2002198E-2,7.69717E-4,6.136643E-4,-8.670574E-3,3.2330488E-4,4.8820544E-3,-4.462695E-3,-1.1162345E-2,9.866216E-1,1.0891293E-2,5.2570354E-4,3.0957381E-3,9.643718E-4,7.252419E-4,-9.365825E-3,-2.3565984E-3,-9.112916E-3,-3.4400418E-3,2.8774084E-3],"split_indices":[2,2,0,0,3,3,0,1,1,0,1,0,2,0,0,2,0,0,2,0,2,0,0,0,1,0,2,1,0,0,1,0,0,0,0,0,1,0,1,3,0,0,0,0,0],"split_type":[0,0,0,0,0,0,0,0,0,0,0,0,0,0,0,0,0,0,0,0,0,0,0,0,0,0,0,0,0,0,0,0,0,0,0,0,0,0,0,0,0,0,0,0,0],"sum_hessian":[4.6102698E2,2.5757016E2,2.034568E2,1.8798988E2,6.958029E1,3.0071356E1,3.9508938E1,2.7449896E1,2.6214588E0,1.2306244E0,3.8278313E1,2.1745861E1,5.7040358E0,1.1856277E0,1.4358311E0,2.540145E1,1.2876863E1,7.682824E0,1.4063037E1,1.1637186E0,4.540317E0,1.4670665E1,1.0730784E1,4.59256E0,9.470477E0,1.638744E0,2.9015732E0,9.064564E0,1.6662208E0,2.1507175E0,7.31976E0,1.1856703E0,1.715903E0,4.631831E0,4.4327326E0,1.7004982E0,5.6192613E0,1.4069481E0,3.0257843E0,4.211827E0,1.4074346E0,1.6393207E0,1.3864636E0,2.221383E0,1.9904437E0],"tree_param":{"num_deleted":"0","num_feature":"4","num_nodes":"45","size_leaf_vector":"1"}},{"base_weights":[-2.6892328E-3,-1.1411221E0,1.4394837E-2,-1.2013884E-2,-8.378566E-1,-9.783496E-1,-2.924441E-1,-1.0253146E0,1.8617788E-3,-1.0053573E-2,-5.5423707E-2,-1.0583699E-2,-1.4300572E-3,5.1568997E-1,-6.8946385E-1,9.12014E-3,1.8620367E-1,-8.948138E-3,-4.15215E-4,-4.4833487E-3,8.100107E-3],"categories":[],"categories_nodes":[],"categories_segments":[],"categories_sizes":[],"default_left":[0,0,0,0,0,0,0,0,0,0,0,0,0,0,0,0,0,0,0,0,0],"id":44,"left_children":[1,3,-1,-1,5,7,9,11,-1,-1,13,-1,-1,15,17,-1,19,-1,-1,-1,-1],"loss_changes":[7.57127E2,3.7035217E0,0E0,0E0,3.2408981E0,2.1693344E0,1.7783891E0,8.6724854E-1,0E0,0E0,3.6885386E0,0E0,0E0,5.372344E-1,6.001518E-1,0E0,2.030844E0,0E0,0E0,0E0,0E0],"parents":[2147483647,0,0,1,1,4,4,5,5,6,6,7,7,10,10,13,13,14,14,16,16],"right_children":[2,4,-1,-1,6,8,10,12,-1,-1,14,-1,-1,16,18,-1,20,-1,-1,-1,-1],"split_conditions":[9.9081135E-1,1.0103976E-2,1.4394837E-2,-1.2013884E-2,9.875103E-1,3.0595914E-3,2.4696326E-4,1.7517944E-3,1.8617788E-3,-1.0053573E-2,5.2570354E-4,-1.0583699E-2,-1.4300572E-3,3.2330488E-4,7.3126884E-4,9.12014E-3,7.5506285E-4,-8.948138E-3,-4.15215E-4,-4.4833487E-3,8.100107E-3],"split_indices":[2,2,0,0,0,1,1,3,0,0,1,0,0,1,1,0,3,0,0,0,0],"split_type":[0,0,0,0,0,0,0,0,0,0,0,0,0,0,0,0,0,0,0,0,0],"sum_hessian":[4.5915134E2,2.5671362E2,2.024377E2,2.1168506E2,4.502857E1,3.517424E1,9.854326E0,3.392558E1,1.2486606E0,1.6499459E0,8.20438E0,3.250813E1,1.4174502E0,4.414587E0,3.789793E0,1.2014408E0,3.2131464E0,2.58844E0,1.2013531E0,1.7323186E0,1.4808278E0],"tree_param":{"num_deleted":"0","num_feature":"4","num_nodes":"21","size_leaf_vector":"1"}},{"base_weights":[-2.6998676E-3,-1.1336619E0,1.4324293E-2,-1.2142586E-2,-9.022715E-1,-6.196868E-1,-1.0970032E0,-7.010928E-1,1.8940425E-1,-1.3987166E-3,-1.1235586E0,-8.089981E-1,-2.3096281E-1,-4.301437E-3,6.670246E-3,-9.5626646E-1,-1.3608524E-2,-1.1638875E-2,-5.5089515E-1,5.3807287E-3,-4.8990542E-1,-1.0982673E0,-6.849879E-1,-1.0864242E-2,-2.131182E-1,-9.832841E-3,-3.1233529E-2,-1.1331961E-2,-3.4733354E-3,-8.1614065E-1,6.576506E-4,-8.557405E-3,5.5782214E-2,4.916431E-3,-4.4059996E-3,-1.1038429E-2,-3.6784905E-1,1.0823067E-2,-3.713364E-1,3.1429024E-3,-6.848924E-1,-4.3808997E-2,-9.275007E-3,-2.281E-3,-9.027602E-3,-3.364515E-3,2.8591722E-3],"categories":[],"categories_nodes":[],"categories_segments":[],"categories_sizes":[],"default_left":[0,0,0,0,0,0,0,0,0,0,0,0,0,0,0,0,0,0,0,0,0,0,0,0,0,0,0,0,0,0,0,0,0,0,0,0,0,0,0,0,0,0,0,0,0,0,0],"id":45,"left_children":[1,3,-1,-1,5,7,9,11,13,-1,15,17,19,-1,-1,21,-1,-1,23,-1,25,27,29,-1,31,-1,33,-1,-1,35,-1,-1,37,-1,-1,-1,39,-1,41,-1,43,45,-1,-1,-1,-1,-1],"loss_changes":[7.4540814E2,3.6944275E0,0E0,0E0,3.1855888E0,2.1716871E0,8.66848E-1,1.2507544E0,1.3572679E0,0E0,2.4917221E-1,1.4334126E0,1.5957656E0,0E0,0E0,2.597313E-1,0E0,0E0,2.4838257E0,0E0,1.2202753E0,1.5247345E-2,1.204143E0,0E0,1.8533711E0,0E0,1.050888E0,0E0,0E0,8.864298E-1,0E0,0E0,4.043415E0,0E0,0E0,0E0,1.386802E0,0E0,1.1633754E0,0E0,1.9343531E-1,5.988677E-1,0E0,0E0,0E0,0E0,0E0],"parents":[2147483647,0,0,1,1,4,4,5,5,6,6,7,7,8,8,10,10,11,11,12,12,15,15,18,18,20,20,21,21,22,22,24,24,26,26,29,29,32,32,36,36,38,38,40,40,41,41],"right_children":[2,4,-1,-1,6,8,10,12,14,-1,16,18,20,-1,-1,22,-1,-1,24,-1,26,28,30,-1,32,-1,34,-1,-1,36,-1,-1,38,-1,-1,-1,40,-1,42,-1,44,46,-1,-1,-1,-1,-1],"split_conditions":[9.9081135E-1,8.996314E-3,1.4324293E-2,-1.2142586E-2,9.396647E-4,8.9641666E-4,9.8221093E-1,7.3126884E-4,5.078244E-4,-1.3987166E-3,1.13161E-3,9.8774755E-1,9.234731E-3,-4.301437E-3,6.670246E-3,1.0747756E-2,-1.3608524E-2,-1.1638875E-2,9.609969E-3,5.3807287E-3,1.2594834E-2,1.1200425E-3,9.8708016E-1,-1.0864242E-2,2.4696326E-4,-9.832841E-3,2.2002198E-2,-1.1331961E-2,-3.4733354E-3,7.69717E-4,6.576506E-4,-8.557405E-3,3.2330488E-4,4.916431E-3,-4.4059996E-3,-1.1038429E-2,9.866216E-1,1.0823067E-2,5.2570354E-4,3.1429024E-3,9.643718E-4,7.252419E-4,-9.275007E-3,-2.281E-3,-9.027602E-3,-3.364515E-3,2.8591722E-3],"split_indices":[2,2,0,0,3,3,0,1,1,0,1,0,2,0,0,2,0,0,2,0,2,1,0,0,1,0,2,0,0,1,0,0,1,0,0,0,0,0,1,0,1,3,0,0,0,0,0],"split_type":[0,0,0,0,0,0,0,0,0,0,0,0,0,0,0,0,0,0,0,0,0,0,0,0,0,0,0,0,0,0,0,0,0,0,0,0,0,0,0,0,0,0,0,0,0,0,0],"sum_hessian":[4.572558E2,2.5584538E2,2.014104E2,1.8660164E2,6.9243744E1,2.995575E1,3.9287994E1,2.7338583E1,2.6171675E0,1.2297977E0,3.8058197E1,2.1648884E1,5.6896996E0,1.1825798E0,1.4345877E0,2.5271593E1,1.2786603E1,7.637707E0,1.4011175E1,1.1616737E0,4.528026E0,1.4587352E1,1.0684241E1,4.5619802E0,9.449196E0,1.6304446E0,2.8975813E0,1.3452572E1,1.1347805E0,9.02119E0,1.6630522E0,2.1437232E0,7.3054724E0,1.1841288E0,1.7134526E0,4.6040764E0,4.4171133E0,1.6958187E0,5.6096535E0,1.4043173E0,3.0127962E0,4.209457E0,1.4001964E0,1.6339473E0,1.3788488E0,2.2193325E0,1.9901247E0],"tree_param":{"num_deleted":"0","num_feature":"4","num_nodes":"47","size_leaf_vector":"1"}},{"base_weights":[-2.8497812E-3,-1.1265179E0,1.425502E-2,-1.2067592E-2,-8.9645916E-1,-6.155238E-1,-1.0902483E0,-6.965519E-1,1.8811914E-1,-1.3910808E-3,-1.1167066E0,-8.040003E-1,-2.2931129E-1,-4.2803762E-3,6.6255406E-3,-9.299424E-1,-1.3206027E0,-1.1568389E-2,-5.4754287E-1,5.347709E-3,-4.870082E-1,-1.1126507E-2,-6.0614526E-1,-3.5116987E-3,-1.3703775E-2,-1.080393E-2,-2.1192326E-1,-9.787653E-3,-3.0786002E-2,-9.370612E-1,1.2414889E-2,-8.507966E-3,5.5399053E-2,4.8867855E-3,-4.3792226E-3,-1.0976103E-2,-1.8088719E-3,5.198169E-3,-3.0014387E-1,1.0767354E-2,-3.6934435E-1,-5.0772494E-3,6.827142E-4,-4.3475613E-2,-9.233944E-3,-3.3420466E-3,2.8403425E-3],"categories":[],"categories_nodes":[],"categories_segments":[],"categories_sizes":[],"default_left":[0,0,0,0,0,0,0,0,0,0,0,0,0,0,0,0,0,0,0,0,0,0,0,0,0,0,0,0,0,0,0,0,0,0,0,0,0,0,0,0,0,0,0,0,0,0,0],"id":46,"left_children":[1,3,-1,-1,5,7,9,11,13,-1,15,17,19,-1,-1,21,23,-1,25,-1,27,-1,29,-1,-1,-1,31,-1,33,35,37,-1,39,-1,-1,-1,-1,-1,41,-1,43,-1,-1,45,-1,-1,-1],"loss_changes":[7.340466E2,3.6435242E0,0E0,0E0,3.1443672E0,2.1435099E0,8.557396E-1,1.2357731E0,1.3412355E0,0E0,2.5505447E-1,1.4115572E0,1.5772808E0,0E0,0E0,7.2815704E-1,3.0236816E-1,0E0,2.4510226E0,0E0,1.2092917E0,0E0,2.2118247E0,0E0,0E0,0E0,1.8298835E0,0E0,1.038459E0,6.531806E-1,9.0666497E-1,0E0,3.9974556E0,0E0,0E0,0E0,0E0,0E0,3.0713868E-1,0E0,1.1524394E0,0E0,0E0,5.908663E-1,0E0,0E0,0E0],